{"learner":{"attributes":{"scikit_learn":"{\"_estimator_type\": \"classifier\"}"},"feature_names":[],"feature_types":[],"gradient_booster":{"model":{"cats":{"enc":[],"feature_segments":[],"sorted_idx":[]},"gbtree_model_param":{"num_parallel_tree":"1","num_trees":"300"},"iteration_indptr":[0,1,2,3,4,5,6,7,8,9,10,11,12,13,14,15,16,17,18,19,20,21,22,23,24,25,26,27,28,29,30,31,32,33,34,35,36,37,38,39,40,41,42,43,44,45,46,47,48,49,50,51,52,53,54,55,56,57,58,59,60,61,62,63,64,65,66,67,68,69,70,71,72,73,74,75,76,77,78,79,80,81,82,83,84,85,86,87,88,89,90,91,92,93,94,95,96,97,98,99,100,101,102,103,104,105,106,107,108,109,110,111,112,113,114,115,116,117,118,119,120,121,122,123,124,125,126,127,128,129,130,131,132,133,134,135,136,137,138,139,140,141,142,143,144,145,146,147,148,149,150,151,152,153,154,155,156,157,158,159,160,161,162,163,164,165,166,167,168,169,170,171,172,173,174,175,176,177,178,179,180,181,182,183,184,185,186,187,188,189,190,191,192,193,194,195,196,197,198,199,200,201,202,203,204,205,206,207,208,209,210,211,212,213,214,215,216,217,218,219,220,221,222,223,224,225,226,227,228,229,230,231,232,233,234,235,236,237,238,239,240,241,242,243,244,245,246,247,248,249,250,251,252,253,254,255,256,257,258,259,260,261,262,263,264,265,266,267,268,269,270,271,272,273,274,275,276,277,278,279,280,281,282,283,284,285,286,287,288,289,290,291,292,293,294,295,296,297,298,299,300],"tree_info":[0,0,0,0,0,0,0,0,0,0,0,0,0,0,0,0,0,0,0,0,0,0,0,0,0,0,0,0,0,0,0,0,0,0,0,0,0,0,0,0,0,0,0,0,0,0,0,0,0,0,0,0,0,0,0,0,0,0,0,0,0,0,0,0,0,0,0,0,0,0,0,0,0,0,0,0,0,0,0,0,0,0,0,0,0,0,0,0,0,0,0,0,0,0,0,0,0,0,0,0,0,0,0,0,0,0,0,0,0,0,0,0,0,0,0,0,0,0,0,0,0,0,0,0,0,0,0,0,0,0,0,0,0,0,0,0,0,0,0,0,0,0,0,0,0,0,0,0,0,0,0,0,0,0,0,0,0,0,0,0,0,0,0,0,0,0,0,0,0,0,0,0,0,0,0,0,0,0,0,0,0,0,0,0,0,0,0,0,0,0,0,0,0,0,0,0,0,0,0,0,0,0,0,0,0,0,0,0,0,0,0,0,0,0,0,0,0,0,0,0,0,0,0,0,0,0,0,0,0,0,0,0,0,0,0,0,0,0,0,0,0,0,0,0,0,0,0,0,0,0,0,0,0,0,0,0,0,0,0,0,0,0,0,0,0,0,0,0,0,0,0,0,0,0,0,0,0,0,0,0,0,0,0,0,0,0,0,0,0,0,0,0,0,0,0,0,0,0,0,0],"trees":[{"base_weights":[-2.004507E-3,-1.0736251E-1,1.1914907E0,-1.6912146E-1,7.517568E-1,7.211452E-1,1.5065495E0,-3.5724786E-1,2.841524E-2,5.14692E-1,1.5229619E0,8.3575606E-1,-1.9415206E-1,1.2464855E0,8.9101896E-2,-5.130443E-1,-1.611509E-1,-1.8108705E-1,1.54932E-1,1.4910571E-1,6.548338E-1,1.5457413E-2,7.958873E-2,-3.5353538E-2,8.95225E-1,-6.422535E-1,5.1971328E-2,7.858319E-1,1.5593555E0,-6.2271345E-1,-1.8294372E-1,-3.1131804E-1,4.750826E-2,-2.5637254E-1,1.6845654E-1,5.463098E-2,4.7176933E-1,5.201157E-1,-5.378788E-1,7.4074686E-1,8.492562E-3,6.7971155E-2,1.0322969E0,4.422254E-3,-9.868288E-1,-1.3239438E-2,9.0711373E-1,1.6609434E0,1.7992657E-2,-1.2121437E-2,-3.531709E-2,4.3009045E-3,-2.2815058E-2,-2.3640092E-2,6.708166E-3,1.872533E-2,-5.184266E-3,-1.4672897E-2,2.9225353E-2,-6.1589577E-3,3.858183E-2,-5.0105765E-3,2.330841E-2,6.04914E-2,1.6170617E-2,8.1807526E-4,6.436171E-2,1.7992657E-2,-4.574536E-2,4.348376E-2,1.2658662E-2,-2.934363E-2,2.795699E-2,1.995221E-2,-5E-2,7.0366696E-3,5.4989707E-2,-6.0000002E-2,-1.45299155E-2,-5.039194E-3,5.402481E-2,4.248927E-2,8.843831E-2],"categories":[],"categories_nodes":[],"categories_segments":[],"categories_sizes":[],"default_left":[0,0,0,0,0,0,0,0,0,0,0,0,0,0,0,0,0,0,0,0,0,0,0,0,0,0,0,0,0,0,0,0,0,0,0,0,0,0,0,0,0,0,0,0,0,0,0,0,0,0,0,0,0,0,0,0,0,0,0,0,0,0,0,0,0,0,0,0,0,0,0,0,0,0,0,0,0,0,0,0,0,0,0],"id":0,"left_children":[1,3,5,7,9,11,13,15,17,19,21,23,25,27,-1,29,31,33,35,37,39,-1,-1,-1,41,43,-1,45,47,49,51,53,55,57,59,61,63,65,67,69,71,73,75,-1,77,-1,79,81,-1,-1,-1,-1,-1,-1,-1,-1,-1,-1,-1,-1,-1,-1,-1,-1,-1,-1,-1,-1,-1,-1,-1,-1,-1,-1,-1,-1,-1,-1,-1,-1,-1,-1,-1],"loss_changes":[1.8598032E2,7.223575E1,1.6692047E1,4.715802E1,1.5913303E1,5.4121113E0,2.8603973E0,1.9772873E1,1.6456356E1,3.5586987E0,1.2588272E0,4.73094E0,4.1945677E0,4.512703E0,0E0,1.2980751E1,9.07644E0,6.1965137E0,1.2272031E1,5.6502686E0,2.8420658E0,0E0,0E0,0E0,4.856514E0,1.4213419E0,0E0,2.5489874E0,2.1676826E0,8.450218E0,6.7753563E0,1.2170761E1,6.065351E0,6.1834707E0,7.49044E0,1.8848938E1,9.782881E0,5.4626245E0,2.9965823E0,2.6252708E0,2.6327832E0,2.9611542E0,2.0839386E0,0E0,1.9787478E-1,0E0,2.9870863E0,3.0261612E-1,0E0,0E0,0E0,0E0,0E0,0E0,0E0,0E0,0E0,0E0,0E0,0E0,0E0,0E0,0E0,0E0,0E0,0E0,0E0,0E0,0E0,0E0,0E0,0E0,0E0,0E0,0E0,0E0,0E0,0E0,0E0,0E0,0E0,0E0,0E0],"parents":[2147483647,0,0,1,1,2,2,3,3,4,4,5,5,6,6,7,7,8,8,9,9,10,10,11,11,12,12,13,13,15,15,16,16,17,17,18,18,19,19,20,20,24,24,25,25,27,27,28,28,29,29,30,30,31,31,32,32,33,33,34,34,35,35,36,36,37,37,38,38,39,39,40,40,41,41,42,42,44,44,46,46,47,47],"right_children":[2,4,6,8,10,12,14,16,18,20,22,24,26,28,-1,30,32,34,36,38,40,-1,-1,-1,42,44,-1,46,48,50,52,54,56,58,60,62,64,66,68,70,72,74,76,-1,78,-1,80,82,-1,-1,-1,-1,-1,-1,-1,-1,-1,-1,-1,-1,-1,-1,-1,-1,-1,-1,-1,-1,-1,-1,-1,-1,-1,-1,-1,-1,-1,-1,-1,-1,-1,-1,-1],"split_conditions":[1.0549217E0,9.9683267E-1,1.6301578E0,-3.2863376E-1,2.919205E0,1.3913392E0,2.6208608E0,1.9491301E-1,-3.8150814E-1,-5.607528E-1,-1.7912358E0,-5.1490664E-1,3.2509685E-1,-2.4784902E-1,8.9101896E-2,-7.0904076E-2,-2.264232E-1,9.272171E-1,3.5309845E-1,-6.1289614E-1,1.693972E0,1.5457413E-2,7.958873E-2,-3.5353538E-2,-1.1546564E0,1.2513502E0,5.1971328E-2,-1.038642E0,1.7312084E0,-8.420561E-1,-2.8737488E-1,5.0708365E-1,-4.4888428E-1,1.9733435E0,2.696539E-1,1.0619669E0,-8.522645E-1,-6.729494E-1,1.2410685E0,1.1041801E0,1.626956E-1,1.3658284E-1,-1.047899E0,4.422254E-3,1.4675777E0,-1.3239438E-2,-9.062614E-1,-8.522645E-1,1.7992657E-2,-1.2121437E-2,-3.531709E-2,4.3009045E-3,-2.2815058E-2,-2.3640092E-2,6.708166E-3,1.872533E-2,-5.184266E-3,-1.4672897E-2,2.9225353E-2,-6.1589577E-3,3.858183E-2,-5.0105765E-3,2.330841E-2,6.04914E-2,1.6170617E-2,8.1807526E-4,6.436171E-2,1.7992657E-2,-4.574536E-2,4.348376E-2,1.2658662E-2,-2.934363E-2,2.795699E-2,1.995221E-2,-5E-2,7.0366696E-3,5.4989707E-2,-6.0000002E-2,-1.45299155E-2,-5.039194E-3,5.402481E-2,4.248927E-2,8.843831E-2],"split_indices":[3,2,3,3,2,10,3,10,2,3,11,2,2,2,0,2,2,7,3,3,8,0,0,0,4,3,0,7,6,7,0,4,7,0,3,10,8,3,2,10,4,2,6,0,10,0,0,8,0,0,0,0,0,0,0,0,0,0,0,0,0,0,0,0,0,0,0,0,0,0,0,0,0,0,0,0,0,0,0,0,0,0,0],"split_type":[0,0,0,0,0,0,0,0,0,0,0,0,0,0,0,0,0,0,0,0,0,0,0,0,0,0,0,0,0,0,0,0,0,0,0,0,0,0,0,0,0,0,0,0,0,0,0,0,0,0,0,0,0,0,0,0,0,0,0,0,0,0,0,0,0,0,0,0,0,0,0,0,0,0,0,0,0,0,0,0,0,0,0],"sum_hessian":[1.4770187E3,1.3580448E3,1.1897388E2,1.2677164E3,9.0328354E1,4.9044777E1,6.992911E1,6.4891046E2,6.1880597E2,7.036567E1,1.9962687E1,4.3664177E1,5.380597E0,3.881343E1,3.1115671E1,3.6071268E2,2.8819775E2,2.3282835E2,3.859776E2,2.0070896E1,5.0294777E1,1.3656716E0,1.8597015E1,1.2164179E0,4.244776E1,4.2985077E0,1.0820895E0,1.7119404E1,2.1694029E1,2.700933E2,9.06194E1,1.6730223E2,1.2089552E2,1.9178731E2,4.1041046E1,2.940597E2,9.191791E1,1.3190298E1,6.880597E0,4.4264927E1,6.029851E0,6.2462687E0,3.6201492E1,1.6156716E0,2.6828358E0,1.6492537E0,1.5470149E1,1.9645523E1,2.0485075E0,4.9391792E1,2.2070149E2,4.602239E1,4.4597015E1,1.2274627E2,4.455597E1,3.775746E1,8.313806E1,1.8430971E2,7.477612E0,2.8201492E1,1.2839552E1,2.1421642E2,7.9843285E1,1.4186567E1,7.7731346E1,8.578358E0,4.6119404E0,2.0485075E0,4.8320894E0,3.4388058E1,9.876865E0,2.8656716E0,3.164179E0,5.2462687E0,1E0,2.7649255E0,3.3436565E1,1.5E0,1.1828358E0,2.3320894E0,1.313806E1,3.347015E0,1.6298508E1],"tree_param":{"num_deleted":"0","num_feature":"13","num_nodes":"83","size_leaf_vector":"1"}},{"base_weights":[4.195483E-3,-9.909258E-2,1.1167201E0,-1.627818E-1,7.7790046E-1,8.610023E-1,1.6293626E0,-3.3241147E-1,-1.919334E-2,4.8740754E-1,1.3537863E0,5.0759125E-1,1.2184777E0,7.3231673E-1,8.419662E-2,-4.7766748E-1,-1.4646393E-1,-4.1735157E-1,4.6183944E-2,-5.2460456E-1,5.83066E-1,9.778042E-1,8.12149E-2,1.4950907E-1,8.4210515E-1,1.3000593E0,-1.2872449E-1,-1.6417602E-2,6.346279E-2,-5.955974E-1,-1.095522E-1,-2.3809539E-1,2.0171618E-1,-7.791949E-1,-2.1644796E-1,1.718799E-1,-1.5500307E-1,1.7182527E-2,-1.0642525E0,6.662295E-1,-3.0001062E-1,5.4003114E-1,7.473496E-2,-2.3021829E-1,6.6838664E-1,9.782951E-1,-2.2524146E-2,1.4559146E0,5.4673797E-1,2.786686E-2,-3.6271553E-2,-5.419712E-2,-2.6835233E-2,9.735097E-3,-1.878738E-2,4.3260362E-2,-1.3291138E-2,-5.8989093E-4,6.5937035E-2,-2.7235819E-3,-4.6939563E-2,-2.455877E-2,1.2857201E-2,6.925077E-3,4.0763535E-2,-1.5275237E-2,8.28377E-3,-1.4783434E-2,-6.4360514E-2,3.6161844E-2,-1.9884948E-2,-4.1565295E-2,5.110715E-2,4.892255E-2,-4.8521947E-2,5.4599945E-3,-4.4811107E-2,4.7636073E-2,-1.3400215E-2,1.1513258E-3,5.4020774E-2,7.588634E-2,2.1737263E-2,-2.4592234E-2,4.139444E-2],"categories":[],"categories_nodes":[],"categories_segments":[],"categories_sizes":[],"default_left":[0,0,0,0,0,0,0,0,0,0,0,0,0,0,0,0,0,0,0,0,0,0,0,0,0,0,0,0,0,0,0,0,0,0,0,0,0,0,0,0,0,0,0,0,0,0,0,0,0,0,0,0,0,0,0,0,0,0,0,0,0,0,0,0,0,0,0,0,0,0,0,0,0,0,0,0,0,0,0,0,0,0,0,0,0],"id":1,"left_children":[1,3,5,7,9,11,13,15,17,19,21,23,25,27,-1,29,31,33,35,37,39,41,-1,43,45,47,49,-1,-1,51,53,55,57,59,61,63,65,-1,67,69,71,73,-1,75,77,79,-1,81,83,-1,-1,-1,-1,-1,-1,-1,-1,-1,-1,-1,-1,-1,-1,-1,-1,-1,-1,-1,-1,-1,-1,-1,-1,-1,-1,-1,-1,-1,-1,-1,-1,-1,-1,-1,-1],"loss_changes":[1.7152634E2,7.642022E1,1.5220856E1,3.1030804E1,1.4840195E1,1.0338226E1,7.779236E-1,1.5706612E1,1.8010712E1,6.419239E0,1.5142059E0,5.303334E0,4.827568E0,2.7662532E0,0E0,1.4151672E1,8.266933E0,6.925148E0,1.5062748E1,3.1676695E0,4.47184E0,2.6495266E0,0E0,4.706771E0,4.527952E0,3.9086456E0,1.7679359E0,0E0,0E0,6.5450974E0,6.6079E0,6.48289E0,1.2945337E1,3.9337788E0,8.47011E0,7.7561646E0,1.1110533E1,0E0,2.9319906E-1,3.5308933E0,4.8509755E0,7.463617E0,0E0,3.2821987E0,2.9233532E0,2.0549583E0,0E0,1.3979263E0,2.8805447E0,0E0,0E0,0E0,0E0,0E0,0E0,0E0,0E0,0E0,0E0,0E0,0E0,0E0,0E0,0E0,0E0,0E0,0E0,0E0,0E0,0E0,0E0,0E0,0E0,0E0,0E0,0E0,0E0,0E0,0E0,0E0,0E0,0E0,0E0,0E0,0E0],"parents":[2147483647,0,0,1,1,2,2,3,3,4,4,5,5,6,6,7,7,8,8,9,9,10,10,11,11,12,12,13,13,15,15,16,16,17,17,18,18,19,19,20,20,21,21,23,23,24,24,25,25,26,26,29,29,30,30,31,31,32,32,33,33,34,34,35,35,36,36,38,38,39,39,40,40,41,41,43,43,44,44,45,45,47,47,48,48],"right_children":[2,4,6,8,10,12,14,16,18,20,22,24,26,28,-1,30,32,34,36,38,40,42,-1,44,46,48,50,-1,-1,52,54,56,58,60,62,64,66,-1,68,70,72,74,-1,76,78,80,-1,82,84,-1,-1,-1,-1,-1,-1,-1,-1,-1,-1,-1,-1,-1,-1,-1,-1,-1,-1,-1,-1,-1,-1,-1,-1,-1,-1,-1,-1,-1,-1,-1,-1,-1,-1,-1,-1],"split_conditions":[1.0549217E0,9.9683267E-1,2.4085417E0,-3.82347E-1,2.3994265E0,-2.647016E-1,-5.099536E-1,1.9491301E-1,-1.1249641E0,-1.7145048E0,3.396294E0,2.0543219E-1,2.1067326E0,-4.4151355E-2,8.419662E-2,-7.0904076E-2,7.0732677E-1,-1.6954723E-1,1.7447972E-1,-2.2024386E0,1.5849397E0,-1.3361277E-1,8.12149E-2,-1.0083098E-1,2.4793506E0,4.7535104E-1,1.7312084E0,-1.6417602E-2,6.346279E-2,-1.2920688E0,-3.0015218E-1,-1.4560533E0,1.4087074E0,-7.553614E-1,-2.647016E-1,1.4675777E0,1.6811872E-1,1.7182527E-2,-7.329247E-1,1.4498024E0,1.9813312E0,-2.0455031E-1,7.473496E-2,-3.8177097E-1,1.4087346E-1,-1.6232108E0,-2.2524146E-2,1.4593891E0,-1.5470262E-1,2.786686E-2,-3.6271553E-2,-5.419712E-2,-2.6835233E-2,9.735097E-3,-1.878738E-2,4.3260362E-2,-1.3291138E-2,-5.8989093E-4,6.5937035E-2,-2.7235819E-3,-4.6939563E-2,-2.455877E-2,1.2857201E-2,6.925077E-3,4.0763535E-2,-1.5275237E-2,8.28377E-3,-1.4783434E-2,-6.4360514E-2,3.6161844E-2,-1.9884948E-2,-4.1565295E-2,5.110715E-2,4.892255E-2,-4.8521947E-2,5.4599945E-3,-4.4811107E-2,4.7636073E-2,-1.3400215E-2,1.1513258E-3,5.4020774E-2,7.588634E-2,2.1737263E-2,-2.4592234E-2,4.139444E-2],"split_indices":[3,2,3,3,2,2,2,10,1,1,2,11,7,11,0,2,6,3,5,1,6,0,0,0,9,0,6,0,0,11,0,5,10,6,2,10,3,0,5,1,2,0,0,0,7,1,0,10,2,0,0,0,0,0,0,0,0,0,0,0,0,0,0,0,0,0,0,0,0,0,0,0,0,0,0,0,0,0,0,0,0,0,0,0,0],"split_type":[0,0,0,0,0,0,0,0,0,0,0,0,0,0,0,0,0,0,0,0,0,0,0,0,0,0,0,0,0,0,0,0,0,0,0,0,0,0,0,0,0,0,0,0,0,0,0,0,0,0,0,0,0,0,0,0,0,0,0,0,0,0,0,0,0,0,0,0,0,0,0,0,0,0,0,0,0,0,0,0,0,0,0,0,0],"sum_hessian":[1.4907319E3,1.364922E3,1.2580999E2,1.2732687E3,9.165328E1,8.572697E1,4.008303E1,5.8310126E2,6.901675E2,6.214963E1,2.9503649E1,4.4325428E1,4.1401535E1,3.125428E0,3.69576E1,3.2648962E2,2.566116E2,9.6582245E1,5.935852E2,4.9799933E0,5.716964E1,1.4276075E1,1.5227574E1,2.2107391E1,2.2218037E1,3.907056E1,2.3309748E0,1.1809852E0,1.9444427E0,2.4680489E2,7.968473E1,2.0339879E2,5.321282E1,3.3452744E1,6.31295E1,3.6542416E2,2.2816104E2,2.0480392E0,2.9319541E0,5.247352E1,4.6961193E0,8.836746E0,5.4393296E0,1.3086607E1,9.020785E0,2.0320204E1,1.8978318E0,3.1600124E1,7.4704366E0,1.1149926E0,1.2159821E0,2.4687565E1,2.2211732E2,3.730953E1,4.2375202E1,4.2458925E0,1.9915291E2,4.550432E1,7.708499E0,6.2794094E0,2.7173334E1,3.9929527E1,2.3199972E1,3.4855673E2,1.6867455E1,1.5531534E2,7.284569E1,1.1823286E0,1.7496254E0,5.010881E1,2.3647091E0,3.6147957E0,1.0813239E0,7.1218286E0,1.7149175E0,9.222529E0,3.8640773E0,6.9062614E0,2.1145236E0,2.0808384E0,1.8239367E1,2.9338005E1,2.2621188E0,1.4318234E0,6.0386133E0],"tree_param":{"num_deleted":"0","num_feature":"13","num_nodes":"85","size_leaf_vector":"1"}},{"base_weights":[-5.908803E-3,-9.997568E-2,1.0533422E0,-1.5831356E-1,7.0540136E-1,6.8909794E-1,1.4178886E0,-2.504123E-1,5.878449E-2,4.08064E-1,1.3164369E0,3.130965E-1,9.701957E-1,1.1276639E0,1.6305234E0,-3.705273E-1,-8.758558E-2,-2.7672233E-2,4.153074E-1,-8.155186E-1,5.114591E-1,9.879506E-1,7.730222E-2,-3.7368032E-1,6.0316455E-1,1.1830975E0,1.4207472E-1,-1.4110311E-2,1.2250072E0,8.272716E-2,2.5215698E-2,-4.844804E-1,-2.2582701E-1,-2.9717222E-1,4.7023777E-2,1.2814876E-1,-2.4012113E-1,-2.1881706E-1,6.089521E-1,4.486449E-3,-6.1660435E-2,-2.7974159E-2,5.616601E-1,1.1127503E0,-6.6388114E-3,-8.38394E-1,5.790576E-2,1.6922697E-1,9.837107E-1,1.2612208E0,-1.5809901E-2,-6.827033E-1,5.888047E-1,-1.7727187E-2,1.3116305E0,-2.199304E-2,-5.628537E-2,-3.7500065E-2,-8.614641E-3,-2.2756653E-2,5.8483435E-3,-7.119118E-3,1.4621598E-2,-8.2725903E-4,1.475053E-2,-2.8928444E-2,3.402436E-4,-4.6876673E-2,3.0135026E-3,-8.956303E-3,3.552848E-2,3.6063764E-2,8.804909E-3,2.5167545E-2,6.503632E-2,2.1273402E-2,-6.2462676E-2,2.5379619E-2,-2.5030792E-2,7.322854E-2,9.397756E-3,4.7578234E-2,7.84882E-2,4.984528E-3,-5.630807E-2,5.5650074E-2,-7.9714535E-3,7.050743E-2,2.0617178E-2],"categories":[],"categories_nodes":[],"categories_segments":[],"categories_sizes":[],"default_left":[0,0,0,0,0,0,0,0,0,0,0,0,0,0,0,0,0,0,0,0,0,0,0,0,0,0,0,0,0,0,0,0,0,0,0,0,0,0,0,0,0,0,0,0,0,0,0,0,0,0,0,0,0,0,0,0,0,0,0,0,0,0,0,0,0,0,0,0,0,0,0,0,0,0,0,0,0,0,0,0,0,0,0,0,0,0,0,0,0],"id":2,"left_children":[1,3,5,7,9,11,13,15,17,19,21,23,25,27,29,31,33,35,37,39,41,43,-1,45,47,49,51,-1,53,-1,-1,55,57,59,61,63,65,67,69,-1,-1,-1,71,73,-1,75,-1,77,79,81,-1,83,85,-1,87,-1,-1,-1,-1,-1,-1,-1,-1,-1,-1,-1,-1,-1,-1,-1,-1,-1,-1,-1,-1,-1,-1,-1,-1,-1,-1,-1,-1,-1,-1,-1,-1,-1,-1],"loss_changes":[1.4777687E2,6.410759E1,1.5085159E1,2.5425615E1,1.6210808E1,6.2971115E0,1.8339233E0,1.7423626E1,1.1704962E1,8.445263E0,7.1450424E-1,5.84179E0,6.0485687E0,4.2443504E0,3.4057617E-2,8.354797E0,1.0740559E1,1.0169251E1,9.232774E0,2.125956E0,3.4930754E0,2.245655E0,0E0,7.3699E0,3.169858E0,3.6681824E0,3.477677E0,0E0,4.126457E0,0E0,0E0,7.6962433E0,6.2694225E0,9.789368E0,1.0843036E1,4.286301E0,1.0862574E1,3.681286E0,4.69458E0,0E0,0E0,0E0,3.3795624E0,9.035454E-1,0E0,4.414062E0,0E0,2.6673806E0,3.7640877E0,1.0601654E0,0E0,1.2905087E0,2.5118256E0,0E0,1.6849403E0,0E0,0E0,0E0,0E0,0E0,0E0,0E0,0E0,0E0,0E0,0E0,0E0,0E0,0E0,0E0,0E0,0E0,0E0,0E0,0E0,0E0,0E0,0E0,0E0,0E0,0E0,0E0,0E0,0E0,0E0,0E0,0E0,0E0,0E0],"parents":[2147483647,0,0,1,1,2,2,3,3,4,4,5,5,6,6,7,7,8,8,9,9,10,10,11,11,12,12,13,13,14,14,15,15,16,16,17,17,18,18,19,19,20,20,21,21,23,23,24,24,25,25,26,26,28,28,31,31,32,32,33,33,34,34,35,35,36,36,37,37,38,38,42,42,43,43,45,45,47,47,48,48,49,49,51,51,52,52,54,54],"right_children":[2,4,6,8,10,12,14,16,18,20,22,24,26,28,30,32,34,36,38,40,42,44,-1,46,48,50,52,-1,54,-1,-1,56,58,60,62,64,66,68,70,-1,-1,-1,72,74,-1,76,-1,78,80,82,-1,84,86,-1,88,-1,-1,-1,-1,-1,-1,-1,-1,-1,-1,-1,-1,-1,-1,-1,-1,-1,-1,-1,-1,-1,-1,-1,-1,-1,-1,-1,-1,-1,-1,-1,-1,-1,-1],"split_conditions":[1.0549217E0,9.9683267E-1,1.8755921E0,-8.621524E-2,2.3994265E0,-3.3161822E-1,2.6208608E0,5.272004E-1,9.3624014E-1,-1.7145048E0,3.396294E0,-6.0428286E-1,4.2574275E-1,-5.1490664E-1,2.4999046E0,-2.716958E-1,-3.6436754E-1,6.781448E-2,-2.937349E-1,-4.0434343E-1,-7.426276E-1,1.0909562E0,7.730222E-2,7.6510364E-1,-4.3842134E-1,2.1067326E0,-5.451391E-1,-1.4110311E-2,-1.4157912E0,8.272716E-2,2.5215698E-2,-2.9551268E-1,-1.3980252E0,5.0708365E-1,-1.3361277E-1,2.8400028E-1,-3.791287E-1,-4.4888428E-1,-4.852236E-1,4.486449E-3,-6.1660435E-2,-2.7974159E-2,5.0708365E-1,-5.018849E-1,-6.6388114E-3,-4.970195E-1,5.790576E-2,-4.6655604E-1,-3.2560256E-1,9.367743E-2,-1.5809901E-2,9.367743E-2,5.8241415E-1,-1.7727187E-2,1.7135608E0,-2.199304E-2,-5.628537E-2,-3.7500065E-2,-8.614641E-3,-2.2756653E-2,5.8483435E-3,-7.119118E-3,1.4621598E-2,-8.2725903E-4,1.475053E-2,-2.8928444E-2,3.402436E-4,-4.6876673E-2,3.0135026E-3,-8.956303E-3,3.552848E-2,3.6063764E-2,8.804909E-3,2.5167545E-2,6.503632E-2,2.1273402E-2,-6.2462676E-2,2.5379619E-2,-2.5030792E-2,7.322854E-2,9.397756E-3,4.7578234E-2,7.84882E-2,4.984528E-3,-5.630807E-2,5.5650074E-2,-7.9714535E-3,7.050743E-2,2.0617178E-2],"split_indices":[3,2,3,3,2,2,3,10,4,1,2,0,0,2,7,2,2,5,11,4,3,10,0,4,2,7,5,0,5,0,0,2,1,4,0,3,2,7,2,0,0,0,4,3,0,2,0,2,5,9,0,9,5,0,7,0,0,0,0,0,0,0,0,0,0,0,0,0,0,0,0,0,0,0,0,0,0,0,0,0,0,0,0,0,0,0,0,0,0],"split_type":[0,0,0,0,0,0,0,0,0,0,0,0,0,0,0,0,0,0,0,0,0,0,0,0,0,0,0,0,0,0,0,0,0,0,0,0,0,0,0,0,0,0,0,0,0,0,0,0,0,0,0,0,0,0,0,0,0,0,0,0,0,0,0,0,0,0,0,0,0,0,0,0,0,0,0,0,0,0,0,0,0,0,0,0,0,0,0,0,0],"sum_hessian":[1.4810444E3,1.3610792E3,1.1996515E2,1.2698971E3,9.118218E1,6.1453182E1,5.8511967E1,8.9153217E2,3.7836496E2,6.245745E1,2.8724731E1,2.7193075E1,3.426011E1,2.7407213E1,3.1104753E1,5.12323E2,3.7920917E2,3.0526147E2,7.310346E1,4.329893E0,5.8127556E1,1.399939E1,1.4725343E1,7.9892216E0,1.9203854E1,2.6912512E1,7.3475966E0,1.6474413E0,2.5759773E1,2.9995878E1,1.1088746E0,2.852988E2,2.270242E2,1.4783012E2,2.3137903E2,1.7632928E2,1.289322E2,1.7071095E1,5.6032364E1,1.6149774E0,2.7149158E0,2.148501E0,5.5979053E1,1.2603079E1,1.3963107E0,6.4769325E0,1.5122892E0,9.647492E0,9.556361E0,2.573057E1,1.181942E0,2.3959098E0,4.951687E0,1.1784346E0,2.4581339E1,2.6831415E2,1.6984629E1,1.9831957E1,2.0719225E2,1.0694153E2,4.0888603E1,1.3082672E2,1.005523E2,9.492022E1,8.140906E1,5.382044E1,7.511177E1,4.114915E0,1.295618E1,6.3126764E0,4.971969E1,3.8973904E1,1.7005154E1,3.838096E0,8.764982E0,1.5802631E0,4.8966694E0,6.5706205E0,3.0768714E0,5.43289E0,4.1234713E0,1.4880478E1,1.0850092E1,1.1471639E0,1.248746E0,2.6250956E0,2.3265915E0,2.164232E1,2.9390166E0],"tree_param":{"num_deleted":"0","num_feature":"13","num_nodes":"89","size_leaf_vector":"1"}},{"base_weights":[7.538802E-3,-8.546174E-2,1.0205175E0,-1.5222594E-1,7.897017E-1,6.90729E-1,1.5015401E0,-2.520734E-1,7.9481706E-2,5.1118714E-1,1.3324966E0,7.452698E-1,-6.045394E-2,5.433535E-1,1.5443512E0,-3.6689726E-1,-9.647644E-2,-2.9449183E-1,1.9924417E-1,-1.4416333E-1,6.520623E-1,8.416868E-1,1.4830599E0,5.977229E-1,1.3220434E0,3.6773145E-2,3.0814463E-3,7.798801E-2,2.3592634E-2,-4.714362E-1,-1.049862E-1,-4.3977326E-1,-2.4221882E-2,-5.933004E-1,-3.4048162E-2,2.9021956E-2,4.5804617E-1,6.579171E-1,-5.4601073E-1,7.234591E-1,-1.5829265E-1,4.0389857E-1,6.898898E-2,1.5431489E0,2.8107041E-2,2.376689E-1,1.00453E0,7.928271E-2,5.2264595E-1,-3.9786056E-2,-2.0895174E-2,-1.5310252E-2,1.673954E-2,-2.972214E-2,9.449873E-3,-1.931118E-2,1.4164102E-3,-4.1390605E-2,-2.9032503E-3,-7.523676E-3,3.5243135E-2,-5.739053E-3,1.9693917E-2,1.2933043E-2,4.2479757E-2,6.630524E-2,-2.4057878E-2,1.7948082E-2,-5.9221692E-2,2.4879888E-2,4.991678E-2,2.850405E-2,-2.4859788E-2,5.101312E-2,-3.2576326E-2,8.081843E-2,2.7885085E-2,-1.1798458E-2,4.0402997E-2,4.8071793E-3,5.875007E-2,-2.6013276E-2,5.3902585E-2],"categories":[],"categories_nodes":[],"categories_segments":[],"categories_sizes":[],"default_left":[0,0,0,0,0,0,0,0,0,0,0,0,0,0,0,0,0,0,0,0,0,0,0,0,0,0,0,0,0,0,0,0,0,0,0,0,0,0,0,0,0,0,0,0,0,0,0,0,0,0,0,0,0,0,0,0,0,0,0,0,0,0,0,0,0,0,0,0,0,0,0,0,0,0,0,0,0,0,0,0,0,0,0],"id":3,"left_children":[1,3,5,7,9,11,13,15,17,19,21,23,-1,25,27,29,31,33,35,37,39,41,43,45,47,-1,-1,-1,-1,49,51,53,55,57,59,61,63,65,67,69,71,73,-1,75,-1,77,79,-1,81,-1,-1,-1,-1,-1,-1,-1,-1,-1,-1,-1,-1,-1,-1,-1,-1,-1,-1,-1,-1,-1,-1,-1,-1,-1,-1,-1,-1,-1,-1,-1,-1,-1,-1],"loss_changes":[1.3978464E2,7.953176E1,1.8755814E1,2.9254025E1,1.3906609E1,8.762829E0,1.2076874E0,1.5746029E1,1.7136026E1,6.1314373E0,1.1238556E0,5.5391235E0,0E0,2.9494202E-1,4.4403076E-2,1.3856483E1,9.326373E0,7.208869E0,1.2735963E1,4.352438E0,3.2391186E0,1.7625742E0,4.1923904E-1,8.7032795E0,2.1899948E0,0E0,0E0,0E0,0E0,5.964142E0,1.3037712E1,6.4718637E0,5.946725E0,5.374179E0,4.46706E0,9.260829E0,8.7392235E0,4.130667E0,5.509641E0,2.5957813E0,1.5654261E0,5.1168656E0,0E0,6.321831E-1,0E0,9.293819E0,4.277708E0,0E0,3.4826074E0,0E0,0E0,0E0,0E0,0E0,0E0,0E0,0E0,0E0,0E0,0E0,0E0,0E0,0E0,0E0,0E0,0E0,0E0,0E0,0E0,0E0,0E0,0E0,0E0,0E0,0E0,0E0,0E0,0E0,0E0,0E0,0E0,0E0,0E0],"parents":[2147483647,0,0,1,1,2,2,3,3,4,4,5,5,6,6,7,7,8,8,9,9,10,10,11,11,13,13,14,14,15,15,16,16,17,17,18,18,19,19,20,20,21,21,22,22,23,23,24,24,29,29,30,30,31,31,32,32,33,33,34,34,35,35,36,36,37,37,38,38,39,39,40,40,41,41,43,43,45,45,46,46,48,48],"right_children":[2,4,6,8,10,12,14,16,18,20,22,24,-1,26,28,30,32,34,36,38,40,42,44,46,48,-1,-1,-1,-1,50,52,54,56,58,60,62,64,66,68,70,72,74,-1,76,-1,78,80,-1,82,-1,-1,-1,-1,-1,-1,-1,-1,-1,-1,-1,-1,-1,-1,-1,-1,-1,-1,-1,-1,-1,-1,-1,-1,-1,-1,-1,-1,-1,-1,-1,-1,-1,-1],"split_conditions":[1.0549217E0,9.9683267E-1,2.104027E0,-8.621524E-2,2.3994265E0,3.2745752E0,-5.1490664E-1,-2.447831E-1,-2.937349E-1,-8.1557006E-1,-6.564002E-1,8.862733E-1,-6.045394E-2,8.7817544E-1,2.4774294E0,5.0708365E-1,-7.929017E-1,-2.646715E-1,6.681395E-1,-5.1372445E-1,1.24194E0,8.4540623E-1,1.2098223E0,-2.447831E-1,2.931775E-1,3.6773145E-2,3.0814463E-3,7.798801E-2,2.3592634E-2,-1.1032817E0,8.71879E-1,9.1051465E-1,-1.2429129E0,-1.9755818E-1,1.2944473E0,-1.16926044E-1,4.7906774E-1,1.7798164E0,9.367743E-2,4.590236E-1,-4.6053585E-1,-3.6189646E-1,6.898898E-2,2.0857008E0,2.8107041E-2,2.0543219E-1,-8.522645E-1,7.928271E-2,5.411098E-1,-3.9786056E-2,-2.0895174E-2,-1.5310252E-2,1.673954E-2,-2.972214E-2,9.449873E-3,-1.931118E-2,1.4164102E-3,-4.1390605E-2,-2.9032503E-3,-7.523676E-3,3.5243135E-2,-5.739053E-3,1.9693917E-2,1.2933043E-2,4.2479757E-2,6.630524E-2,-2.4057878E-2,1.7948082E-2,-5.9221692E-2,2.4879888E-2,4.991678E-2,2.850405E-2,-2.4859788E-2,5.101312E-2,-3.2576326E-2,8.081843E-2,2.7885085E-2,-1.1798458E-2,4.0402997E-2,4.8071793E-3,5.875007E-2,-2.6013276E-2,5.3902585E-2],"split_indices":[3,2,3,3,2,9,2,2,11,1,8,4,0,10,8,4,11,8,10,3,1,4,1,2,0,0,0,0,0,1,10,8,1,2,10,2,4,2,9,10,8,4,0,8,0,11,8,0,0,0,0,0,0,0,0,0,0,0,0,0,0,0,0,0,0,0,0,0,0,0,0,0,0,0,0,0,0,0,0,0,0,0,0],"split_type":[0,0,0,0,0,0,0,0,0,0,0,0,0,0,0,0,0,0,0,0,0,0,0,0,0,0,0,0,0,0,0,0,0,0,0,0,0,0,0,0,0,0,0,0,0,0,0,0,0,0,0,0,0,0,0,0,0,0,0,0,0,0,0,0,0,0,0,0,0,0,0,0,0,0,0,0,0,0,0,0,0,0,0],"sum_hessian":[1.4818683E3,1.3580983E3,1.2376999E2,1.2626033E3,9.549503E1,7.487307E1,4.8896923E1,8.8231024E2,3.8029303E2,6.439497E1,3.110006E1,7.3374306E1,1.4987583E0,2.6768277E0,4.6220097E1,5.068896E2,3.754207E2,9.189141E1,2.884016E2,1.1389188E1,5.3005783E1,8.847854E0,2.2252205E1,6.004919E1,1.3325119E1,1.5371075E0,1.1397202E0,4.511755E1,1.102547E0,3.61715E2,1.4517459E2,6.439237E1,3.1102832E2,4.2198635E1,4.969278E1,1.7464453E2,1.13757065E2,3.5887916E0,7.8003964E0,4.881237E1,4.1934137E0,5.8439064E0,3.0039473E0,2.0254932E1,1.9972737E0,3.2695507E1,2.7353682E1,9.281028E0,4.0440907E0,4.928675E1,3.1242825E2,9.981034E1,4.5364246E1,5.172362E1,1.2668751E1,3.8622166E1,2.7240613E2,2.8962275E1,1.323636E1,4.3616734E1,6.076046E0,1.2576244E2,4.8882095E1,7.647495E1,3.7282112E1,2.158442E0,1.4303496E0,3.407691E0,4.3927054E0,2.8337875E1,2.0474495E1,1.1149714E0,3.0784423E0,3.7103777E0,2.1335287E0,1.82581E1,1.9968317E0,1.8183064E1,1.4512445E1,4.569309E0,2.2784372E1,1.4272834E0,2.6168075E0],"tree_param":{"num_deleted":"0","num_feature":"13","num_nodes":"83","size_leaf_vector":"1"}},{"base_weights":[2.3196633E-3,-8.8309854E-2,9.7604674E-1,-1.7620103E-1,1.15560725E-1,7.297386E-1,1.4883372E0,-2.792941E-1,-3.300041E-2,4.5898754E-2,4.3174097E-1,7.948269E-1,-3.4534037E-1,1.5056275E0,2.2898946E-2,-4.2377603E-1,-2.0602103E-1,5.1982305E-3,-9.652679E-1,-1.4396559E-1,1.1851714E-1,5.0462127E-1,-7.146879E-1,6.956204E-1,7.489535E-2,1.2908655E-1,-5.635921E-2,7.713163E-2,7.1398944E-1,-5.8747566E-1,-2.7135003E-1,7.2863334E-1,-2.3516637E-1,-3.7908575E-1,7.1978614E-2,-1.1891712E0,1.781147E-2,-5.4094696E-1,1.4183181E-3,6.4056724E-1,7.1103E-2,3.6130413E-2,6.503408E-1,3.5840978E-3,-5.6594875E-2,1.5472548E-1,7.8863597E-1,-3.667268E-2,6.815544E-1,7.4239774E-4,5.1325332E-2,-3.3072617E-2,2.0605884E-2,1.0584372E-2,-1.8803416E-2,-7.542457E-3,6.1048187E-2,-1.369362E-2,1.4182433E-2,-3.510943E-2,4.506049E-3,2.3724933E-3,4.5508858E-2,-6.466049E-2,-1.3443248E-2,5.2408762E-2,-3.2805055E-2,-3.1711765E-2,7.6615275E-3,1.2515615E-2,6.435384E-2,-2.29635E-3,1.4480531E-2,-2.1793602E-2,2.731028E-2,4.3940287E-2,-1.5693346E-5,-4.0389016E-2,2.530917E-2,5.9843123E-2,3.3021558E-2,4.8859328E-2,3.8817567E-3],"categories":[],"categories_nodes":[],"categories_segments":[],"categories_sizes":[],"default_left":[0,0,0,0,0,0,0,0,0,0,0,0,0,0,0,0,0,0,0,0,0,0,0,0,0,0,0,0,0,0,0,0,0,0,0,0,0,0,0,0,0,0,0,0,0,0,0,0,0,0,0,0,0,0,0,0,0,0,0,0,0,0,0,0,0,0,0,0,0,0,0,0,0,0,0,0,0,0,0,0,0,0,0],"id":4,"left_children":[1,3,5,7,9,11,13,15,17,19,21,23,25,27,-1,29,31,33,35,37,39,41,43,45,-1,47,-1,-1,49,51,53,55,57,59,61,63,-1,65,67,69,71,73,75,-1,-1,77,79,-1,81,-1,-1,-1,-1,-1,-1,-1,-1,-1,-1,-1,-1,-1,-1,-1,-1,-1,-1,-1,-1,-1,-1,-1,-1,-1,-1,-1,-1,-1,-1,-1,-1,-1,-1],"loss_changes":[1.3104753E2,2.4363659E1,1.486898E1,1.40112095E1,9.007681E0,6.386959E0,2.4726868E-2,5.756977E0,1.4201756E1,4.6632457E0,6.5334387E0,4.7241554E0,2.2537675E0,4.0916443E-2,0E0,4.452053E0,1.0202251E1,9.88073E0,5.068162E0,5.407525E0,6.001527E0,4.7586784E0,1.6656938E0,3.6167984E0,0E0,2.6130652E0,0E0,0E0,7.719996E-1,6.7985706E0,5.0144753E0,5.1113734E0,7.263796E0,8.70539E0,6.699565E0,9.595623E-1,0E0,5.283465E0,6.8103538E0,4.778365E0,5.769165E0,4.494153E0,7.9340973E0,0E0,0E0,4.518403E0,2.5153847E0,0E0,4.9929368E-1,0E0,0E0,0E0,0E0,0E0,0E0,0E0,0E0,0E0,0E0,0E0,0E0,0E0,0E0,0E0,0E0,0E0,0E0,0E0,0E0,0E0,0E0,0E0,0E0,0E0,0E0,0E0,0E0,0E0,0E0,0E0,0E0,0E0,0E0],"parents":[2147483647,0,0,1,1,2,2,3,3,4,4,5,5,6,6,7,7,8,8,9,9,10,10,11,11,12,12,13,13,15,15,16,16,17,17,18,18,19,19,20,20,21,21,22,22,23,23,25,25,28,28,29,29,30,30,31,31,32,32,33,33,34,34,35,35,37,37,38,38,39,39,40,40,41,41,42,42,45,45,46,46,48,48],"right_children":[2,4,6,8,10,12,14,16,18,20,22,24,26,28,-1,30,32,34,36,38,40,42,44,46,-1,48,-1,-1,50,52,54,56,58,60,62,64,-1,66,68,70,72,74,76,-1,-1,78,80,-1,82,-1,-1,-1,-1,-1,-1,-1,-1,-1,-1,-1,-1,-1,-1,-1,-1,-1,-1,-1,-1,-1,-1,-1,-1,-1,-1,-1,-1,-1,-1,-1,-1,-1,-1],"split_conditions":[1.0549217E0,-9.275079E-2,2.4085417E0,5.864236E-1,9.7278726E-1,2.1067326E0,2.6964905E0,-5.6935066E-1,2.0151672E0,-5.428712E-1,1.7561661E0,1.3362728E0,2.6732938E0,1.397957E0,2.2898946E-2,2.0543219E-1,-9.955092E-1,-1.1032817E0,1.106379E0,-2.937349E-1,-3.4761366E-1,-2.937349E-1,1.7140183E0,-7.929017E-1,7.489535E-2,1.1975355E0,-5.635921E-2,7.713163E-2,-3.7708828E-1,1.9733435E0,-8.420561E-1,-3.1771845E-1,1.7135608E0,-4.576452E-3,2.6964905E0,6.8582463E-1,1.781147E-2,-1.5091274E0,1.6467182E-3,8.543493E-1,9.2064106E-1,-2.646715E-1,6.31544E-1,3.5840978E-3,-5.6594875E-2,-1.0107424E0,-8.7056875E-1,-3.667268E-2,-4.1659307E-1,7.4239774E-4,5.1325332E-2,-3.3072617E-2,2.0605884E-2,1.0584372E-2,-1.8803416E-2,-7.542457E-3,6.1048187E-2,-1.369362E-2,1.4182433E-2,-3.510943E-2,4.506049E-3,2.3724933E-3,4.5508858E-2,-6.466049E-2,-1.3443248E-2,5.2408762E-2,-3.2805055E-2,-3.1711765E-2,7.6615275E-3,1.2515615E-2,6.435384E-2,-2.29635E-3,1.4480531E-2,-2.1793602E-2,2.731028E-2,4.3940287E-2,-1.5693346E-5,-4.0389016E-2,2.530917E-2,5.9843123E-2,3.3021558E-2,4.8859328E-2,3.8817567E-3],"split_indices":[3,3,3,10,4,7,7,3,5,1,5,4,8,1,0,11,0,1,8,11,1,11,4,11,0,3,0,0,0,0,7,1,7,0,7,4,0,5,3,11,10,8,1,0,0,4,1,0,0,0,0,0,0,0,0,0,0,0,0,0,0,0,0,0,0,0,0,0,0,0,0,0,0,0,0,0,0,0,0,0,0,0,0],"split_type":[0,0,0,0,0,0,0,0,0,0,0,0,0,0,0,0,0,0,0,0,0,0,0,0,0,0,0,0,0,0,0,0,0,0,0,0,0,0,0,0,0,0,0,0,0,0,0,0,0,0,0,0,0,0,0,0,0,0,0,0,0,0,0,0,0,0,0,0,0,0,0,0,0,0,0,0,0,0,0,0,0,0,0],"sum_hessian":[1.4830078E3,1.3575623E3,1.2544562E2,9.48701E2,4.0886127E2,8.635215E1,3.9093464E1,5.510433E2,3.976577E2,3.3598175E2,7.287954E1,8.1668396E1,4.6837564E0,3.7994617E1,1.0988477E0,1.838127E2,3.6723056E2,3.8296075E2,1.4696974E1,9.268078E1,2.4330096E2,6.904977E1,3.8297727E0,7.331311E1,8.355287E0,3.4345486E0,1.2492075E0,3.539158E1,2.6030366E0,8.725261E1,9.656009E1,1.0379306E1,3.5685126E2,5.6005226E1,3.2695554E2,1.2653247E1,2.0437262E0,2.4114246E1,6.856653E1,1.921587E1,2.240851E2,1.6677916E1,5.237185E1,1.6146384E0,2.2151344E0,1.1148265E1,6.216484E1,1.2130616E0,2.221487E0,1.1277113E0,1.4753253E0,8.155525E1,5.6973586E0,1.7021759E1,7.953833E1,3.9739594E0,6.4053464E0,3.3251608E2,2.433515E1,3.287231E1,2.3132915E1,3.1868622E2,8.269314E0,1.1004067E1,1.6491798E0,1.0818869E0,2.303236E1,1.2606027E1,5.5960503E1,1.2847725E1,6.368146E0,1.4644225E2,7.764285E1,8.737796E0,7.94012E0,3.8501972E1,1.3869879E1,2.6346414E0,8.513623E0,1.2864974E1,4.929987E1,1.0764605E0,1.1450267E0],"tree_param":{"num_deleted":"0","num_feature":"13","num_nodes":"83","size_leaf_vector":"1"}},{"base_weights":[1.0766072E-2,-7.2345376E-2,9.2373306E-1,-1.2322847E-1,2.4769242E-1,6.5190256E-1,1.2956854E0,-2.3690104E-1,3.468825E-2,7.397429E-1,1.4775969E-1,5.521023E-1,7.0078485E-2,2.6100233E-1,6.6833116E-2,-5.252593E-1,-1.7951593E-1,-2.543164E-1,1.0465203E-1,-9.116505E-3,8.6946505E-1,-9.297507E-4,3.6669537E-1,3.658663E-1,9.16419E-1,-2.1612907E-2,4.3205895E-2,-2.1873964E-2,-6.5834713E-1,-3.5032427E-1,-7.325793E-2,-4.895261E-1,1.3777903E-1,1.4282914E-1,-4.68927E-1,-3.886654E-2,6.0253197E-1,1.0850728E0,2.6025948E-1,1.6752107E-1,-2.7830026E-1,-3.487633E-2,6.4492166E-1,4.5919743E-1,-9.218455E-1,4.431279E-1,1.2520162E0,-2.0284643E-2,2.8799757E-2,-3.5063073E-2,4.7170717E-2,-2.7405133E-3,-2.291168E-2,-8.149501E-3,6.7918636E-3,-3.8661692E-2,-1.4480139E-2,-8.592362E-3,4.0727932E-2,5.998179E-3,4.2567167E-2,-3.3954587E-2,1.0161575E-2,3.9493896E-2,4.978818E-3,2.0125555E-2,6.2041488E-2,2.9084945E-2,-3.160174E-2,1.3697031E-2,-4.0885024E-2,5.004966E-3,-2.9470919E-2,3.9065264E-2,-1.0607654E-2,-6.7695156E-3,4.2902403E-2,1.5521844E-2,4.6865556E-2,-1.4857027E-2,-5.5884954E-2,-2.5444204E-2,3.5318892E-2,6.840556E-2,8.927596E-3],"categories":[],"categories_nodes":[],"categories_segments":[],"categories_sizes":[],"default_left":[0,0,0,0,0,0,0,0,0,0,0,0,0,0,0,0,0,0,0,0,0,0,0,0,0,0,0,0,0,0,0,0,0,0,0,0,0,0,0,0,0,0,0,0,0,0,0,0,0,0,0,0,0,0,0,0,0,0,0,0,0,0,0,0,0,0,0,0,0,0,0,0,0,0,0,0,0,0,0,0,0,0,0,0,0],"id":5,"left_children":[1,3,5,7,9,11,13,15,17,19,21,23,-1,25,-1,27,29,31,33,35,37,39,41,43,45,-1,-1,47,49,51,53,55,57,59,61,-1,63,65,67,69,71,73,75,77,79,81,83,-1,-1,-1,-1,-1,-1,-1,-1,-1,-1,-1,-1,-1,-1,-1,-1,-1,-1,-1,-1,-1,-1,-1,-1,-1,-1,-1,-1,-1,-1,-1,-1,-1,-1,-1,-1,-1,-1],"loss_changes":[1.1286876E2,2.2234583E1,1.17043E1,2.1138628E1,9.104476E0,4.74177E0,1.8301163E0,1.1233685E1,1.0006224E1,3.0564747E0,5.111131E0,4.190899E0,0E0,1.7116835E0,0E0,7.5629196E0,1.0364532E1,8.965883E0,8.7837105E0,3.1105502E0,3.232336E0,4.461765E0,7.1173687E0,5.928722E0,2.9239178E0,0E0,0E0,5.8981333E0,6.808117E0,6.9675865E0,6.667576E0,3.209219E0,7.8845315E0,5.9567733E0,3.6802387E0,0E0,2.69413E-1,1.5681858E0,2.7512045E0,6.4535017E0,4.3066263E0,4.063479E0,6.3630886E0,2.7944107E0,8.733344E-2,3.0246391E0,1.2844791E0,0E0,0E0,0E0,0E0,0E0,0E0,0E0,0E0,0E0,0E0,0E0,0E0,0E0,0E0,0E0,0E0,0E0,0E0,0E0,0E0,0E0,0E0,0E0,0E0,0E0,0E0,0E0,0E0,0E0,0E0,0E0,0E0,0E0,0E0,0E0,0E0,0E0,0E0],"parents":[2147483647,0,0,1,1,2,2,3,3,4,4,5,5,6,6,7,7,8,8,9,9,10,10,11,11,13,13,15,15,16,16,17,17,18,18,19,19,20,20,21,21,22,22,23,23,24,24,27,27,28,28,29,29,30,30,31,31,32,32,33,33,34,34,36,36,37,37,38,38,39,39,40,40,41,41,42,42,43,43,44,44,45,45,46,46],"right_children":[2,4,6,8,10,12,14,16,18,20,22,24,-1,26,-1,28,30,32,34,36,38,40,42,44,46,-1,-1,48,50,52,54,56,58,60,62,-1,64,66,68,70,72,74,76,78,80,82,84,-1,-1,-1,-1,-1,-1,-1,-1,-1,-1,-1,-1,-1,-1,-1,-1,-1,-1,-1,-1,-1,-1,-1,-1,-1,-1,-1,-1,-1,-1,-1,-1,-1,-1,-1,-1,-1,-1],"split_conditions":[1.0549217E0,2.8400028E-1,2.104027E0,5.6268436E-1,-1.0079714E0,1.3362728E0,-1.5749038E0,-7.929017E-1,-8.1557006E-1,-8.5711807E-1,1.11184806E-1,4.7044775E-1,7.0078485E-2,-2.819554E-1,6.6833116E-2,-7.553614E-1,-4.2690712E-1,2.939747E-1,1.8517793E0,-1.2736353E0,2.65186E-1,4.788511E-1,-4.628238E-1,2.1067326E0,-4.4888428E-1,-2.1612907E-2,4.3205895E-2,-7.620707E-2,1.547843E0,-6.090926E-1,1.4735337E-1,-3.16555E-1,1.3183124E0,2.6135159E0,-1.11804724E-1,-3.886654E-2,-2.1878248E-1,-1.1315842E0,5.617034E-1,1.6574811E0,-3.16555E-1,-7.771619E-1,-7.929017E-1,9.6582425E-1,-6.444539E-1,1.1975355E0,7.484614E-1,-2.0284643E-2,2.8799757E-2,-3.5063073E-2,4.7170717E-2,-2.7405133E-3,-2.291168E-2,-8.149501E-3,6.7918636E-3,-3.8661692E-2,-1.4480139E-2,-8.592362E-3,4.0727932E-2,5.998179E-3,4.2567167E-2,-3.3954587E-2,1.0161575E-2,3.9493896E-2,4.978818E-3,2.0125555E-2,6.2041488E-2,2.9084945E-2,-3.160174E-2,1.3697031E-2,-4.0885024E-2,5.004966E-3,-2.9470919E-2,3.9065264E-2,-1.0607654E-2,-6.7695156E-3,4.2902403E-2,1.5521844E-2,4.6865556E-2,-1.4857027E-2,-5.5884954E-2,-2.5444204E-2,3.5318892E-2,6.840556E-2,8.927596E-3],"split_indices":[3,3,3,10,5,4,4,11,1,0,4,1,0,0,0,6,4,4,5,5,4,1,6,7,7,0,0,0,1,6,0,6,10,0,3,0,1,4,1,5,6,0,11,5,4,3,4,0,0,0,0,0,0,0,0,0,0,0,0,0,0,0,0,0,0,0,0,0,0,0,0,0,0,0,0,0,0,0,0,0,0,0,0,0,0],"split_type":[0,0,0,0,0,0,0,0,0,0,0,0,0,0,0,0,0,0,0,0,0,0,0,0,0,0,0,0,0,0,0,0,0,0,0,0,0,0,0,0,0,0,0,0,0,0,0,0,0,0,0,0,0,0,0,0,0,0,0,0,0,0,0,0,0,0,0,0,0,0,0,0,0,0,0,0,0,0,0,0,0,0,0,0,0],"sum_hessian":[1.4856223E3,1.3625079E3,1.231144E2,1.176129E3,1.8637883E2,7.272102E1,5.039338E1,6.835743E2,4.925548E2,3.0381834E1,1.55997E2,6.57098E1,7.0112214E0,2.2004542E0,4.8192924E1,1.1210371E2,5.714705E2,9.548653E1,3.970683E2,4.6231375E0,2.5758696E1,9.349556E1,6.2501442E1,4.480835E1,2.090145E1,1.1555178E0,1.0449365E0,2.3684578E1,8.841913E1,2.1828438E2,3.531862E2,5.9528282E1,3.595824E1,3.7299307E2,2.4075224E1,1.9292156E0,2.6939218E0,1.8448387E1,7.310309E0,5.8415237E1,3.508032E1,2.5938435E1,3.656301E1,4.238011E1,2.428237E0,9.634449E0,1.1267001E1,1.4620178E1,9.0644E0,8.665954E1,1.7595841E0,5.8790947E1,1.5949342E2,2.4728545E2,1.0590073E2,2.3422361E1,3.6105923E1,2.5183079E1,1.0775163E1,3.6246472E2,1.0528343E1,1.8332775E1,5.7424483E0,1.5471512E0,1.1467707E0,4.0935907E0,1.4354796E1,5.6301823E0,1.6801267E0,5.337215E1,5.0430884E0,1.613467E1,1.8945646E1,4.0205536E0,2.1917881E1,7.9222593E0,2.864075E1,3.3580997E1,8.799114E0,1.1803825E0,1.2478544E0,1.8848889E0,7.74956E0,9.919705E0,1.3472959E0],"tree_param":{"num_deleted":"0","num_feature":"13","num_nodes":"85","size_leaf_vector":"1"}},{"base_weights":[1.3560445E-2,-4.0395137E-2,7.5115E-1,-1.4538974E-1,1.07347324E-1,4.8189035E-1,1.2958032E0,-2.2108093E-1,5.0281502E-2,1.1582402E-5,2.4407916E-1,6.546936E-1,1.4785987E-1,1.0062112E0,7.288681E-2,-3.0464944E-1,-1.1330191E-1,-1.0839286E-1,3.0670184E-1,-1.534875E-1,1.377009E-1,9.293108E-2,4.083432E-1,8.059592E-1,-1.6154705E-2,-1.9371386E-1,7.414501E-1,1.2389728E0,3.4237003E-1,-1.1366784E-1,-3.7061968E-1,5.052144E-1,-1.545463E-1,-4.3296647E-1,2.7031235E-2,2.4590243E-2,6.127932E-1,-2.3464341E-1,4.0822023E-1,1.9004653E-1,-3.8490567E-1,1.451109E-1,-7.001039E-1,5.683958E-1,1.4860867E-1,-3.549119E-1,8.9567184E-1,7.258681E-1,-3.8415417E-1,-5.348153E-1,1.5113078E-1,9.305255E-1,-1.4908329E-2,6.79694E-2,1.9974852E-2,-2.6347918E-2,4.9080018E-2,3.614103E-2,-1.1250793E-2,-2.3556212E-2,-6.298322E-3,-1.4998377E-3,4.5509715E-2,-5.057274E-3,-2.4132742E-2,-2.8819283E-2,9.07804E-3,2.5835408E-2,-3.0415298E-3,4.3787114E-2,-2.384382E-3,4.1237414E-2,-1.1151225E-2,2.313292E-2,-1.471619E-2,-1.9335777E-2,3.978333E-2,2.3575672E-3,2.3214787E-2,2.4033053E-2,-2.8223122E-2,5.0430857E-3,3.5130415E-2,2.6860168E-2,-4.8223536E-2,1.8558709E-2,4.8862353E-2,1.7673183E-2,-2.5436008E-2,-3.399246E-2,7.2843335E-3,3.1951007E-2,6.786765E-2,5.2535024E-2,1.8434434E-3,-3.3242416E-2,2.8149635E-2,1.0144106E-2,-5.627642E-2,-3.7651874E-2,2.5230322E-2,5.7775356E-2,5.3482555E-4],"categories":[],"categories_nodes":[],"categories_segments":[],"categories_sizes":[],"default_left":[0,0,0,0,0,0,0,0,0,0,0,0,0,0,0,0,0,0,0,0,0,0,0,0,0,0,0,0,0,0,0,0,0,0,0,0,0,0,0,0,0,0,0,0,0,0,0,0,0,0,0,0,0,0,0,0,0,0,0,0,0,0,0,0,0,0,0,0,0,0,0,0,0,0,0,0,0,0,0,0,0,0,0,0,0,0,0,0,0,0,0,0,0,0,0,0,0,0,0,0,0,0,0],"id":6,"left_children":[1,3,5,7,9,11,13,15,17,19,21,23,25,27,-1,29,31,33,35,37,39,41,43,45,47,49,51,53,55,57,59,61,63,65,67,69,71,73,75,77,79,81,83,85,87,89,91,93,95,97,99,101,-1,-1,-1,-1,-1,-1,-1,-1,-1,-1,-1,-1,-1,-1,-1,-1,-1,-1,-1,-1,-1,-1,-1,-1,-1,-1,-1,-1,-1,-1,-1,-1,-1,-1,-1,-1,-1,-1,-1,-1,-1,-1,-1,-1,-1,-1,-1,-1,-1,-1,-1],"loss_changes":[5.8745354E1,2.1356327E1,1.41316185E1,1.1928329E1,8.396254E0,3.8815994E0,6.6417694E-2,5.193001E0,9.198213E0,6.816148E0,6.2087584E0,4.5929375E0,5.1701527E0,1.8864536E0,0E0,4.0691986E0,6.584973E0,6.1604443E0,7.4428616E0,7.047467E0,4.7238674E0,5.5772347E0,4.9154167E0,4.1554356E0,2.8141396E0,2.025072E0,2.0980945E0,5.375366E-1,3.4424536E0,8.100344E0,5.8935165E0,3.5342422E0,4.154345E0,3.7394867E0,4.318557E0,2.8707745E0,7.5148344E0,5.707618E0,6.3494244E0,6.0601325E0,2.7282453E0,3.0123308E0,3.2464223E0,5.609232E0,6.537047E0,6.455233E-1,3.2192326E0,7.276193E-1,2.1982164E0,3.9453905E0,3.2560894E0,1.6596723E0,0E0,0E0,0E0,0E0,0E0,0E0,0E0,0E0,0E0,0E0,0E0,0E0,0E0,0E0,0E0,0E0,0E0,0E0,0E0,0E0,0E0,0E0,0E0,0E0,0E0,0E0,0E0,0E0,0E0,0E0,0E0,0E0,0E0,0E0,0E0,0E0,0E0,0E0,0E0,0E0,0E0,0E0,0E0,0E0,0E0,0E0,0E0,0E0,0E0,0E0,0E0],"parents":[2147483647,0,0,1,1,2,2,3,3,4,4,5,5,6,6,7,7,8,8,9,9,10,10,11,11,12,12,13,13,15,15,16,16,17,17,18,18,19,19,20,20,21,21,22,22,23,23,24,24,25,25,26,26,27,27,28,28,29,29,30,30,31,31,32,32,33,33,34,34,35,35,36,36,37,37,38,38,39,39,40,40,41,41,42,42,43,43,44,44,45,45,46,46,47,47,48,48,49,49,50,50,51,51],"right_children":[2,4,6,8,10,12,14,16,18,20,22,24,26,28,-1,30,32,34,36,38,40,42,44,46,48,50,52,54,56,58,60,62,64,66,68,70,72,74,76,78,80,82,84,86,88,90,92,94,96,98,100,102,-1,-1,-1,-1,-1,-1,-1,-1,-1,-1,-1,-1,-1,-1,-1,-1,-1,-1,-1,-1,-1,-1,-1,-1,-1,-1,-1,-1,-1,-1,-1,-1,-1,-1,-1,-1,-1,-1,-1,-1,-1,-1,-1,-1,-1,-1,-1,-1,-1,-1,-1],"split_conditions":[9.9683267E-1,-2.447831E-1,2.3994265E0,5.6225365E-1,4.1407248E-1,2.685203E-1,-2.646715E-1,9.367743E-2,6.520431E-1,-1.7585276E-1,1.9263892E-1,1.9813312E0,1.123803E0,6.209043E-1,7.288681E-2,-6.090926E-1,-1.3031063E0,-5.6799585E-1,-6.880715E-2,1.3203889E0,1.5849397E0,1.4924604E0,9.8318243E-1,-2.0057254E0,-1.038642E0,1.3955958E0,2.901359E0,1.1509422E0,1.0395792E0,-1.323421E0,7.306312E-1,-2.5229838E-1,2.4793506E0,9.9614197E-1,-1.9533995E-1,7.659376E-1,7.359287E-1,-2.1921133E-1,-1.1315842E0,1.2225147E-1,-1.1908165E0,1.6683224E0,-4.628238E-1,7.4079853E-1,2.6280418E-1,-8.522645E-1,6.3669586E-1,-2.1652974E-1,7.8545713E-1,3.3981732E-1,-4.4888428E-1,5.0779676E-1,-1.4908329E-2,6.79694E-2,1.9974852E-2,-2.6347918E-2,4.9080018E-2,3.614103E-2,-1.1250793E-2,-2.3556212E-2,-6.298322E-3,-1.4998377E-3,4.5509715E-2,-5.057274E-3,-2.4132742E-2,-2.8819283E-2,9.07804E-3,2.5835408E-2,-3.0415298E-3,4.3787114E-2,-2.384382E-3,4.1237414E-2,-1.1151225E-2,2.313292E-2,-1.471619E-2,-1.9335777E-2,3.978333E-2,2.3575672E-3,2.3214787E-2,2.4033053E-2,-2.8223122E-2,5.0430857E-3,3.5130415E-2,2.6860168E-2,-4.8223536E-2,1.8558709E-2,4.8862353E-2,1.7673183E-2,-2.5436008E-2,-3.399246E-2,7.2843335E-3,3.1951007E-2,6.786765E-2,5.2535024E-2,1.8434434E-3,-3.3242416E-2,2.8149635E-2,1.0144106E-2,-5.627642E-2,-3.7651874E-2,2.5230322E-2,5.7775356E-2,5.3482555E-4],"split_indices":[2,2,2,4,10,6,8,9,10,4,1,2,7,1,0,6,5,1,8,7,6,10,1,1,7,2,6,10,1,4,7,7,9,5,1,10,5,2,4,6,5,4,6,1,2,8,5,4,5,1,7,5,0,0,0,0,0,0,0,0,0,0,0,0,0,0,0,0,0,0,0,0,0,0,0,0,0,0,0,0,0,0,0,0,0,0,0,0,0,0,0,0,0,0,0,0,0,0,0,0,0,0,0],"split_type":[0,0,0,0,0,0,0,0,0,0,0,0,0,0,0,0,0,0,0,0,0,0,0,0,0,0,0,0,0,0,0,0,0,0,0,0,0,0,0,0,0,0,0,0,0,0,0,0,0,0,0,0,0,0,0,0,0,0,0,0,0,0,0,0,0,0,0,0,0,0,0,0,0,0,0,0,0,0,0,0,0,0,0,0,0,0,0,0,0,0,0,0,0,0,0,0,0,0,0,0,0,0,0],"sum_hessian":[1.47436E3,1.3747412E3,9.961878E1,8.036416E2,5.710997E2,6.792402E1,3.1694763E1,5.79388E2,2.2425359E2,3.205024E2,2.5059726E2,4.4132874E1,2.3791145E1,1.3953981E1,1.7740782E1,3.2531906E2,2.5406892E2,1.3888689E2,8.53667E1,1.5149628E2,1.6900613E2,1.3132442E2,1.1927284E2,3.5848255E1,8.284616E0,1.55289E1,8.262245E0,9.690017E0,4.2639647E0,8.422208E1,2.41097E2,1.517967E1,2.3888925E2,4.0241695E1,9.864519E1,4.4985645E1,4.0381054E1,1.3287996E2,1.8616318E1,1.5419765E2,1.4808492E1,1.239836E2,7.340811E0,7.30623E1,4.6210537E1,2.3595705E0,3.3488686E1,2.4241545E0,5.8604617E0,7.5298734E0,7.999027E0,7.0796084E0,1.1826366E0,7.932799E0,1.7572174E0,1.8812177E0,2.382747E0,9.248946E0,7.497313E1,1.7023718E2,7.0859825E1,6.9373603E0,8.242311E0,2.0657646E2,3.2312794E1,3.2677452E1,7.564242E0,1.4264499E1,8.438069E1,2.6509895E0,4.2334656E1,3.2222893E1,8.158162E0,9.9438925E0,1.2293607E2,6.1008663E0,1.2515451E1,1.0214684E2,5.2050804E1,2.2560596E0,1.2552432E1,1.15960594E2,8.023005E0,1.1106476E0,6.230163E0,5.0574184E1,2.248812E1,3.5583347E1,1.06271925E1,1.2136929E0,1.1458776E0,2.3055878E1,1.0432807E1,1.2906873E0,1.1334673E0,4.7506285E0,1.109833E0,3.6403093E0,3.8895638E0,1.9305141E0,6.0685124E0,5.4824357E0,1.5971724E0],"tree_param":{"num_deleted":"0","num_feature":"13","num_nodes":"103","size_leaf_vector":"1"}},{"base_weights":[-1.1150423E-2,-1.0433523E-1,1.18612245E-1,-1.8993035E-1,3.5894432E-3,-1.6132566E-1,1.7938028E-1,-3.300739E-1,-7.864641E-2,3.7396275E-2,-5.918399E-1,-2.43424E-1,9.098781E-1,7.7004455E-2,3.2976544E-1,-5.2863234E-1,-2.0484461E-1,1.3570788E-2,-2.388006E-1,-2.1266426E-1,1.11027E-1,-1.0161706E0,1.8881848E-1,-2.4479942E-2,-4.8177233E-1,1.2612253E0,-1.5221911E-2,-5.7947908E-2,2.7977005E-1,2.9170746E-1,9.908792E-1,-1.6534993E-1,-6.4948076E-1,1.6967554E-1,-2.940595E-1,-1.17772184E-1,4.810861E-1,2.874407E-1,-4.797717E-1,6.09329E-2,-2.542023E-1,8.915995E-2,8.3427894E-1,-4.8785788E-1,-6.67505E-2,-2.301466E-1,8.281172E-1,-2.0239794E-1,6.8531007E-1,5.8683243E-2,-5.578875E-1,2.4947312E-2,7.020552E-2,1.1719855E-1,-2.7802584E-1,5.8328027E-1,1.4784122E-1,3.818265E-1,-5.9167877E-2,1.3026234E0,-1.0052813E-1,2.5328487E-2,-1.6370224E-2,-3.5157543E-2,2.5821745E-2,-2.6066631E-2,1.8368308E-2,-3.094033E-2,-8.177855E-3,2.8303592E-4,-3.4447517E-2,2.0687988E-3,3.8364094E-2,1.3374044E-4,3.2623135E-2,-3.6532335E-2,-1.08906785E-2,-5.248307E-2,-7.6655545E-3,6.596674E-3,-1.33462865E-2,5.6002896E-2,-8.0504746E-5,2.795867E-2,-3.981993E-2,-4.154336E-2,4.1918E-2,5.6161553E-2,6.2159407E-3,-1.47125E-2,4.5722514E-2,-3.5345566E-2,4.599404E-2,-4.548894E-2,-1.6384603E-2,-3.0822758E-2,8.230082E-3,-1.0099663E-2,-4.379622E-2,-7.974382E-3,4.433721E-2,1.4086291E-3,3.89678E-2,-1.7760353E-2,2.1624023E-2,-3.6241673E-2,1.5197058E-2,6.2340465E-3,7.34931E-2,-3.49417E-2,2.8688973E-2],"categories":[],"categories_nodes":[],"categories_segments":[],"categories_sizes":[],"default_left":[0,0,0,0,0,0,0,0,0,0,0,0,0,0,0,0,0,0,0,0,0,0,0,0,0,0,0,0,0,0,0,0,0,0,0,0,0,0,0,0,0,0,0,0,0,0,0,0,0,0,0,0,0,0,0,0,0,0,0,0,0,0,0,0,0,0,0,0,0,0,0,0,0,0,0,0,0,0,0,0,0,0,0,0,0,0,0,0,0,0,0,0,0,0,0,0,0,0,0,0,0,0,0,0,0,0,0,0,0,0,0],"id":7,"left_children":[1,3,5,7,9,11,13,15,17,19,21,23,25,27,29,31,33,35,37,39,41,43,45,47,49,51,-1,53,55,57,59,61,63,65,67,69,71,73,75,-1,77,79,81,83,-1,85,87,89,91,-1,93,-1,-1,95,97,99,101,103,105,107,109,-1,-1,-1,-1,-1,-1,-1,-1,-1,-1,-1,-1,-1,-1,-1,-1,-1,-1,-1,-1,-1,-1,-1,-1,-1,-1,-1,-1,-1,-1,-1,-1,-1,-1,-1,-1,-1,-1,-1,-1,-1,-1,-1,-1,-1,-1,-1,-1,-1,-1],"loss_changes":[1.7940306E1,7.977318E0,1.05787E1,7.4845257E0,7.729801E0,9.995432E0,7.826847E0,5.183939E0,3.986987E0,6.712208E0,7.0262256E0,5.416263E0,3.8494005E0,8.355404E0,4.900856E0,3.4787254E0,4.4654317E0,1.0625721E1,1.2643378E1,5.2431316E0,4.3743887E0,1.6266041E0,2.3624265E0,7.118224E0,6.923149E0,6.7596436E-3,0E0,7.117407E0,4.796918E0,6.234764E0,3.809184E0,2.5321488E0,4.1772385E0,3.7511659E0,4.437436E0,9.533986E0,4.743577E0,3.2828906E0,4.310855E0,0E0,6.3769803E0,4.2109356E0,1.9452057E0,2.5986137E0,0E0,4.343014E0,5.7228804E-1,4.881614E0,4.342225E0,0E0,3.609373E0,0E0,0E0,3.685374E0,3.5393982E0,8.393255E0,6.503145E0,5.9943542E0,1.0133586E1,1.4873695E0,1.7445261E0,0E0,0E0,0E0,0E0,0E0,0E0,0E0,0E0,0E0,0E0,0E0,0E0,0E0,0E0,0E0,0E0,0E0,0E0,0E0,0E0,0E0,0E0,0E0,0E0,0E0,0E0,0E0,0E0,0E0,0E0,0E0,0E0,0E0,0E0,0E0,0E0,0E0,0E0,0E0,0E0,0E0,0E0,0E0,0E0,0E0,0E0,0E0,0E0,0E0,0E0],"parents":[2147483647,0,0,1,1,2,2,3,3,4,4,5,5,6,6,7,7,8,8,9,9,10,10,11,11,12,12,13,13,14,14,15,15,16,16,17,17,18,18,19,19,20,20,21,21,22,22,23,23,24,24,25,25,27,27,28,28,29,29,30,30,31,31,32,32,33,33,34,34,35,35,36,36,37,37,38,38,40,40,41,41,42,42,43,43,45,45,46,46,47,47,48,48,50,50,53,53,54,54,55,55,56,56,57,57,58,58,59,59,60,60],"right_children":[2,4,6,8,10,12,14,16,18,20,22,24,26,28,30,32,34,36,38,40,42,44,46,48,50,52,-1,54,56,58,60,62,64,66,68,70,72,74,76,-1,78,80,82,84,-1,86,88,90,92,-1,94,-1,-1,96,98,100,102,104,106,108,110,-1,-1,-1,-1,-1,-1,-1,-1,-1,-1,-1,-1,-1,-1,-1,-1,-1,-1,-1,-1,-1,-1,-1,-1,-1,-1,-1,-1,-1,-1,-1,-1,-1,-1,-1,-1,-1,-1,-1,-1,-1,-1,-1,-1,-1,-1,-1,-1,-1,-1],"split_conditions":[1.01326995E-1,9.367743E-2,-7.929017E-1,2.0543219E-1,1.9553249E0,1.3002374E0,1.2225147E-1,-4.4888428E-1,2.3924674E-1,-7.133985E-1,-5.5712447E-2,-4.929151E-3,3.494215E-1,-5.88479E-2,1.380821E0,-9.016302E-1,-6.090926E-1,7.306312E-1,-4.4888428E-1,-1.0144975E0,3.0150642E0,-3.2183504E-1,-3.7708828E-1,-2.9423437E-1,-1.0144975E0,-1.7912358E0,-1.5221911E-2,-4.3708112E-2,2.2254671E-1,7.359287E-1,1.547843E0,-1.1932157E0,2.189819E0,-7.992619E-1,-1.7028615E-1,3.3745936E-1,1.2705721E-1,5.7153875E-1,-7.5369006E-1,6.09329E-2,-8.504036E-1,1.0045645E0,8.543493E-1,-1.1085747E0,-6.67505E-2,-6.5401304E-1,2.0543219E-1,1.7135608E0,-1.5415453E0,5.8683243E-2,5.8241415E-1,2.4947312E-2,7.020552E-2,-1.9459856E0,-2.1225248E-1,-4.9227273E-1,1.9733435E0,-1.0481288E0,1.1373289E0,-6.454702E-1,1.6141738E0,2.5328487E-2,-1.6370224E-2,-3.5157543E-2,2.5821745E-2,-2.6066631E-2,1.8368308E-2,-3.094033E-2,-8.177855E-3,2.8303592E-4,-3.4447517E-2,2.0687988E-3,3.8364094E-2,1.3374044E-4,3.2623135E-2,-3.6532335E-2,-1.08906785E-2,-5.248307E-2,-7.6655545E-3,6.596674E-3,-1.33462865E-2,5.6002896E-2,-8.0504746E-5,2.795867E-2,-3.981993E-2,-4.154336E-2,4.1918E-2,5.6161553E-2,6.2159407E-3,-1.47125E-2,4.5722514E-2,-3.5345566E-2,4.599404E-2,-4.548894E-2,-1.6384603E-2,-3.0822758E-2,8.230082E-3,-1.0099663E-2,-4.379622E-2,-7.974382E-3,4.433721E-2,1.4086291E-3,3.89678E-2,-1.7760353E-2,2.1624023E-2,-3.6241673E-2,1.5197058E-2,6.2340465E-3,7.34931E-2,-3.49417E-2,2.8688973E-2],"split_indices":[4,9,11,11,5,1,6,7,5,1,7,5,5,0,1,6,6,7,7,0,0,0,0,5,0,11,0,5,0,5,1,4,0,5,6,7,8,1,4,0,0,0,11,4,0,4,11,7,1,0,5,0,0,1,0,1,0,8,5,7,1,0,0,0,0,0,0,0,0,0,0,0,0,0,0,0,0,0,0,0,0,0,0,0,0,0,0,0,0,0,0,0,0,0,0,0,0,0,0,0,0,0,0,0,0,0,0,0,0,0,0],"split_type":[0,0,0,0,0,0,0,0,0,0,0,0,0,0,0,0,0,0,0,0,0,0,0,0,0,0,0,0,0,0,0,0,0,0,0,0,0,0,0,0,0,0,0,0,0,0,0,0,0,0,0,0,0,0,0,0,0,0,0,0,0,0,0,0,0,0,0,0,0,0,0,0,0,0,0,0,0,0,0,0,0,0,0,0,0,0,0,0,0,0,0,0,0,0,0,0,0,0,0,0,0,0,0,0,0,0,0,0,0,0,0],"sum_hessian":[1.4816385E3,8.6247577E2,6.191628E2,4.8057315E2,3.8190262E2,1.1013824E2,5.0902457E2,2.1183556E2,2.687376E2,3.6227106E2,1.9631556E1,1.0301574E2,7.122493E0,3.0375385E2,2.0527069E2,8.068439E1,1.3115117E2,1.7112097E2,9.761663E1,8.197703E1,2.8029404E2,1.2522956E1,7.108599E0,5.4268253E1,4.874749E1,5.494188E0,1.6283048E0,1.8280238E2,1.2095148E2,1.9545999E2,9.810704E0,2.073154E1,5.9952847E1,2.505779E1,1.06093376E2,1.3417435E2,3.6946625E1,3.05995E1,6.701713E1,1.5127349E0,8.0464294E1,2.7315854E2,7.1354914E0,5.6654615E0,6.8574944E0,4.680941E0,2.427658E0,4.3963165E1,1.0305085E1,1.5089777E0,4.723851E1,1.5763637E0,3.917824E0,1.0205253E2,8.0749855E1,3.5609196E1,8.534228E1,1.5544675E2,4.0013252E1,7.480488E0,2.330216E0,3.615369E0,1.711617E1,5.769396E1,2.2588868E0,5.209918E0,1.9847874E1,2.9340254E1,7.675312E1,1.11145615E2,2.302873E1,1.5017842E1,2.1928783E1,1.7755314E1,1.2844188E1,3.3318817E1,3.369831E1,7.9984035E0,7.246589E1,2.444271E2,2.8731445E1,5.0641637E0,2.0713277E0,1.1046205E0,4.560841E0,3.1387312E0,1.5422097E0,1.290553E0,1.137105E0,4.1302864E1,2.6603034E0,1.195562E0,9.109524E0,1.7513727E1,2.9724785E1,5.4651E0,9.658743E1,7.28266E1,7.9232535E0,1.0466209E1,2.5142988E1,7.262487E1,1.2717408E1,9.609701E0,1.4583704E2,1.3771189E1,2.6242064E1,1.1470174E0,6.333471E0,1.215417E0,1.1147989E0],"tree_param":{"num_deleted":"0","num_feature":"13","num_nodes":"111","size_leaf_vector":"1"}},{"base_weights":[7.2207344E-3,-5.0755657E-2,6.129491E-1,-1.448291E-1,8.434236E-2,4.0928888E-1,1.1950164E0,-2.0743993E-1,3.6786065E-2,1.1505457E-1,-5.7755893E-1,-5.011303E-1,4.6562532E-1,5.057332E-1,6.5350965E-2,-2.584688E-1,1.19836554E-1,-2.7008545E-1,1.0911037E-1,5.9577537E-1,8.877993E-2,-9.1521627E-1,-6.6023104E-2,-9.43097E-1,3.194655E-2,5.3387946E-1,-2.7422753E-1,5.8897782E-2,-1.201167E-1,-3.9778525E-1,-1.8324585E-1,-3.4061837E-1,2.8800786E-1,-3.7914348E-1,2.9793847E-1,6.475387E-2,6.652315E-1,-6.938527E-2,8.792195E-1,8.127937E-1,6.47688E-2,-1.3550432E0,-7.614234E-3,-5.993216E-1,3.639122E-1,-6.85063E-2,-8.236366E-3,-3.122881E-1,5.8983594E-1,-5.340128E-1,3.2267608E-2,-3.7121627E-2,4.3890048E-2,-2.8441876E-2,-5.2978224E-3,-3.496408E-2,-7.890437E-3,1.6046887E-2,-4.060065E-2,-8.479744E-3,2.457467E-2,4.947244E-2,-2.2706227E-2,4.4997424E-2,-3.0008474E-2,2.0412277E-2,-7.9156127E-4,4.8467834E-2,-2.6054868E-2,-4.0198226E-2,2.7847994E-2,-1.3450881E-2,5.0076693E-2,-2.5113815E-2,4.872257E-2,-6.481416E-3,6.9863074E-3,-1.6471902E-2,-7.2640896E-2,-2.2713263E-2,5.1202632E-2,2.1627259E-2,-5.7575237E-2,-3.345381E-2,3.5739236E-2,-4.2380568E-2,1.4996216E-2,2.4067027E-2,5.548851E-2,-4.5421477E-2,3.181402E-2],"categories":[],"categories_nodes":[],"categories_segments":[],"categories_sizes":[],"default_left":[0,0,0,0,0,0,0,0,0,0,0,0,0,0,0,0,0,0,0,0,0,0,0,0,0,0,0,0,0,0,0,0,0,0,0,0,0,0,0,0,0,0,0,0,0,0,0,0,0,0,0,0,0,0,0,0,0,0,0,0,0,0,0,0,0,0,0,0,0,0,0,0,0,0,0,0,0,0,0,0,0,0,0,0,0,0,0,0,0,0,0],"id":8,"left_children":[1,3,5,7,9,11,13,15,17,19,21,23,25,27,-1,29,31,33,35,37,39,41,43,45,-1,47,49,-1,51,53,55,57,59,61,63,65,67,69,71,73,75,77,79,81,83,-1,-1,85,87,89,-1,-1,-1,-1,-1,-1,-1,-1,-1,-1,-1,-1,-1,-1,-1,-1,-1,-1,-1,-1,-1,-1,-1,-1,-1,-1,-1,-1,-1,-1,-1,-1,-1,-1,-1,-1,-1,-1,-1,-1,-1],"loss_changes":[5.2130093E1,1.7231504E1,1.4882244E1,9.093979E0,1.13853245E1,5.238142E0,1.8935204E0,9.95731E0,4.594915E0,6.6785946E0,4.2327995E0,3.7104015E0,4.8129787E0,2.7735767E0,0E0,5.3191147E0,6.359276E0,2.56124E0,4.080901E0,5.235235E0,8.752534E0,5.9355745E0,2.7312865E0,1.3859377E0,0E0,4.206234E0,2.3670614E0,0E0,3.2273002E0,8.902384E0,4.2997074E0,7.1491904E0,5.6486564E0,3.896906E0,4.284676E0,4.32294E0,4.9218345E0,4.6472178E0,2.9824324E0,3.9274082E0,7.1774893E0,5.2690697E-1,3.1689804E0,3.5009348E0,2.9033127E0,0E0,0E0,2.1952963E0,3.9799232E0,3.710211E0,0E0,0E0,0E0,0E0,0E0,0E0,0E0,0E0,0E0,0E0,0E0,0E0,0E0,0E0,0E0,0E0,0E0,0E0,0E0,0E0,0E0,0E0,0E0,0E0,0E0,0E0,0E0,0E0,0E0,0E0,0E0,0E0,0E0,0E0,0E0,0E0,0E0,0E0,0E0,0E0,0E0],"parents":[2147483647,0,0,1,1,2,2,3,3,4,4,5,5,6,6,7,7,8,8,9,9,10,10,11,11,12,12,13,13,15,15,16,16,17,17,18,18,19,19,20,20,21,21,22,22,23,23,25,25,26,26,28,28,29,29,30,30,31,31,32,32,33,33,34,34,35,35,36,36,37,37,38,38,39,39,40,40,41,41,42,42,43,43,44,44,47,47,48,48,49,49],"right_children":[2,4,6,8,10,12,14,16,18,20,22,24,26,28,-1,30,32,34,36,38,40,42,44,46,-1,48,50,-1,52,54,56,58,60,62,64,66,68,70,72,74,76,78,80,82,84,-1,-1,86,88,90,-1,-1,-1,-1,-1,-1,-1,-1,-1,-1,-1,-1,-1,-1,-1,-1,-1,-1,-1,-1,-1,-1,-1,-1,-1,-1,-1,-1,-1,-1,-1,-1,-1,-1,-1,-1,-1,-1,-1,-1,-1],"split_conditions":[7.9526323E-1,5.9534645E-1,2.3994265E0,-9.566721E-2,2.055308E0,-1.2530627E0,-7.6967233E-1,1.2049072E0,-9.7670954E-1,7.2472644E-1,-5.5712447E-2,7.306312E-1,1.5849397E0,7.7879146E-2,6.5350965E-2,-4.4151355E-2,-4.5042086E-1,8.3485705E-1,1.3262902E0,-4.4151355E-2,-1.4560533E0,-1.9755818E-1,1.1159877E0,2.3024982E-1,3.194655E-2,-1.7995354E0,8.543493E-1,5.8897782E-2,1.2474571E0,-1.0083098E-1,-1.4670002E0,-4.970195E-1,-7.198622E-1,-1.5415453E0,-1.1932157E0,-7.197099E-1,7.6796186E-1,-2.5229838E-1,-9.2783034E-1,-5.001053E-1,-5.2311254E-1,-5.048211E-1,1.2225147E-1,8.71879E-1,2.142641E0,-6.85063E-2,-8.236366E-3,1.4087346E-1,9.272171E-1,1.6226634E0,3.2267608E-2,-3.7121627E-2,4.3890048E-2,-2.8441876E-2,-5.2978224E-3,-3.496408E-2,-7.890437E-3,1.6046887E-2,-4.060065E-2,-8.479744E-3,2.457467E-2,4.947244E-2,-2.2706227E-2,4.4997424E-2,-3.0008474E-2,2.0412277E-2,-7.9156127E-4,4.8467834E-2,-2.6054868E-2,-4.0198226E-2,2.7847994E-2,-1.3450881E-2,5.0076693E-2,-2.5113815E-2,4.872257E-2,-6.481416E-3,6.9863074E-3,-1.6471902E-2,-7.2640896E-2,-2.2713263E-2,5.1202632E-2,2.1627259E-2,-5.7575237E-2,-3.345381E-2,3.5739236E-2,-4.2380568E-2,1.4996216E-2,2.4067027E-2,5.548851E-2,-4.5421477E-2,3.181402E-2],"split_indices":[2,10,2,2,5,5,0,4,4,10,7,7,6,4,0,11,2,0,1,11,5,2,10,4,0,1,11,0,4,0,4,2,5,1,4,0,5,7,0,2,1,2,6,10,5,0,0,7,7,2,0,0,0,0,0,0,0,0,0,0,0,0,0,0,0,0,0,0,0,0,0,0,0,0,0,0,0,0,0,0,0,0,0,0,0,0,0,0,0,0,0],"split_type":[0,0,0,0,0,0,0,0,0,0,0,0,0,0,0,0,0,0,0,0,0,0,0,0,0,0,0,0,0,0,0,0,0,0,0,0,0,0,0,0,0,0,0,0,0,0,0,0,0,0,0,0,0,0,0,0,0,0,0,0,0,0,0,0,0,0,0,0,0,0,0,0,0,0,0,0,0,0,0,0,0,0,0,0,0,0,0,0,0,0,0],"sum_hessian":[1.482543E3,1.353875E3,1.2866792E2,7.980754E2,5.557996E2,9.6578964E1,3.2088963E1,5.933716E2,2.0470381E2,5.319436E2,2.3856E1,5.1679263E0,9.141104E1,5.256286E0,2.6832676E1,5.135147E2,7.985684E1,3.8521786E1,1.6618202E2,2.6444277E1,5.0549933E2,1.3894976E1,9.961025E0,3.8486786E0,1.3192478E0,8.394519E1,7.4658527E0,2.1089272E0,3.1473587E0,1.7854773E2,3.34967E2,2.1089134E1,5.876771E1,3.259602E1,5.9257674E0,1.5494034E2,1.124168E1,8.127234E0,1.8317043E1,1.51717205E1,4.903276E2,9.027316E0,4.8676596E0,4.2702093E0,5.6908154E0,1.9943098E0,1.8543689E0,4.9227667E0,7.902242E1,6.1482353E0,1.3176174E0,2.096173E0,1.0511856E0,1.1196908E2,6.657866E1,1.4491498E1,3.204755E2,8.907502E0,1.2181632E1,1.8140194E1,4.0627518E1,1.0596042E0,3.1536415E1,3.54648E0,2.3792875E0,2.866986E1,1.2627048E2,9.093406E0,2.1482751E0,3.6099248E0,4.5173097E0,1.6478943E0,1.6669147E1,1.4301938E0,1.3741527E1,1.3624792E2,3.5407968E2,1.1659954E0,7.8613205E0,3.7875514E0,1.0801083E0,1.5640768E0,2.7061327E0,1.2129449E0,4.477871E0,2.4211712E0,2.5015955E0,6.697287E1,1.2049551E1,4.8275094E0,1.3207262E0],"tree_param":{"num_deleted":"0","num_feature":"13","num_nodes":"91","size_leaf_vector":"1"}},{"base_weights":[-1.3281745E-2,-6.642903E-2,6.7742014E-1,-1.5011139E-1,4.888935E-2,4.6174586E-1,1.1658944E0,-2.835794E-1,-8.167566E-2,-1.3098156E-1,1.06888846E-1,-5.984561E-1,5.378206E-1,1.2018714E0,1.403485E-2,-3.11734E-1,3.3541867E-1,-5.5454463E-2,-5.620674E-1,-1.7823486E-1,4.7290057E-1,6.504983E-2,3.255736E-1,2.489486E-2,-9.886568E-1,6.1821234E-1,-4.1370574E-2,1.2436411E0,1.2859966E-2,-5.5739194E-1,-2.4613228E-1,8.337369E-1,-2.125601E-1,-7.661379E-2,5.031696E-1,3.7796836E-2,-6.970054E-1,-2.5500587E-1,8.641909E-2,-5.1498836E-1,6.4823434E-2,-2.497267E-2,1.8958233E-1,2.2556688E-1,1.182161E0,5.729751E-3,-7.0662074E-2,4.2821196E-1,9.108318E-1,-4.693313E-1,4.8101198E-2,8.9002854E-1,7.4277185E-2,-6.0348522E-2,-2.1651564E-2,4.7279485E-2,-1.3319144E-2,-2.614564E-3,5.408882E-2,-3.428675E-2,4.083313E-2,-1.1006668E-2,8.0097996E-4,5.3465515E-2,6.3948805E-4,-4.613325E-2,4.540966E-3,-1.0356E-2,-4.0824648E-2,-5.1766884E-2,1.0019953E-2,-4.594924E-2,2.8376406E-2,1.1955653E-2,-4.856156E-3,-2.7542506E-4,1.9919146E-2,2.443224E-3,2.9139016E-2,4.184386E-3,6.889888E-2,2.5526478E-4,2.8195893E-2,5.1721044E-2,1.1048308E-2,1.4346035E-2,-5.5719454E-2,5.2975662E-2,-8.377841E-5],"categories":[],"categories_nodes":[],"categories_segments":[],"categories_sizes":[],"default_left":[0,0,0,0,0,0,0,0,0,0,0,0,0,0,0,0,0,0,0,0,0,0,0,0,0,0,0,0,0,0,0,0,0,0,0,0,0,0,0,0,0,0,0,0,0,0,0,0,0,0,0,0,0,0,0,0,0,0,0,0,0,0,0,0,0,0,0,0,0,0,0,0,0,0,0,0,0,0,0,0,0,0,0,0,0,0,0,0,0],"id":9,"left_children":[1,3,5,7,9,11,13,15,17,19,21,23,25,27,-1,29,31,33,35,37,39,41,43,-1,45,47,49,51,-1,53,55,57,59,61,63,-1,65,67,69,71,-1,73,75,77,79,-1,-1,81,83,85,-1,87,-1,-1,-1,-1,-1,-1,-1,-1,-1,-1,-1,-1,-1,-1,-1,-1,-1,-1,-1,-1,-1,-1,-1,-1,-1,-1,-1,-1,-1,-1,-1,-1,-1,-1,-1,-1,-1],"loss_changes":[5.427584E1,1.3253836E1,1.0591217E1,7.2447014E0,6.043762E0,6.3661785E0,6.7222595E-1,4.7977905E0,6.6121573E0,4.118565E0,3.9827142E0,2.841147E0,3.305891E0,8.7015915E-1,0E0,4.0222473E0,3.507991E0,5.9628987E0,5.362152E0,2.7008157E0,9.237743E0,4.1367536E0,5.7322426E0,0E0,2.2156963E0,3.0529327E0,4.5412145E0,1.126049E0,0E0,3.807829E0,5.2110815E0,1.5051637E0,3.7772377E0,6.4353113E0,5.101238E0,0E0,4.560796E0,2.5855336E0,4.093423E0,2.928956E0,0E0,4.11627E0,6.306485E0,4.007611E0,1.4087086E0,0E0,0E0,2.2613478E0,1.7743683E0,3.9045248E0,0E0,2.1358204E0,0E0,0E0,0E0,0E0,0E0,0E0,0E0,0E0,0E0,0E0,0E0,0E0,0E0,0E0,0E0,0E0,0E0,0E0,0E0,0E0,0E0,0E0,0E0,0E0,0E0,0E0,0E0,0E0,0E0,0E0,0E0,0E0,0E0,0E0,0E0,0E0,0E0],"parents":[2147483647,0,0,1,1,2,2,3,3,4,4,5,5,6,6,7,7,8,8,9,9,10,10,11,11,12,12,13,13,15,15,16,16,17,17,18,18,19,19,20,20,21,21,22,22,24,24,25,25,26,26,27,27,29,29,30,30,31,31,32,32,33,33,34,34,36,36,37,37,38,38,39,39,41,41,42,42,43,43,44,44,47,47,48,48,49,49,51,51],"right_children":[2,4,6,8,10,12,14,16,18,20,22,24,26,28,-1,30,32,34,36,38,40,42,44,-1,46,48,50,52,-1,54,56,58,60,62,64,-1,66,68,70,72,-1,74,76,78,80,-1,-1,82,84,86,-1,88,-1,-1,-1,-1,-1,-1,-1,-1,-1,-1,-1,-1,-1,-1,-1,-1,-1,-1,-1,-1,-1,-1,-1,-1,-1,-1,-1,-1,-1,-1,-1,-1,-1,-1,-1,-1,-1],"split_conditions":[9.438635E-1,-2.4784902E-1,2.3994265E0,-4.4151355E-2,-2.937349E-1,-1.2142812E0,1.4498024E0,2.3033185E0,2.0151672E0,1.9101468E0,7.3042226E-1,-1.5287131E0,1.1461332E0,2.0857008E0,1.403485E-2,-7.8661567E-1,1.8774773E0,1.4759865E0,-1.7532824E0,1.1807559E0,-5.7658374E-2,5.4988474E-1,1.3973668E0,2.489486E-2,-3.0015218E-1,4.194164E-1,1.7798164E0,-2.646715E-1,1.2859966E-2,-5.0627935E-1,-7.564057E-1,-4.6053585E-1,1.156669E-1,-4.5547527E-1,1.4650637E-1,3.7796836E-2,9.152772E-1,1.5107527E0,-1.1941679E0,3.8236514E-1,6.4823434E-2,-7.553614E-1,1.9263892E-1,5.340453E-1,-1.8197095E-1,5.729751E-3,-7.0662074E-2,-6.2521064E-1,9.5037585E-1,-1.24198005E-1,4.8101198E-2,6.7509717E-1,7.4277185E-2,-6.0348522E-2,-2.1651564E-2,4.7279485E-2,-1.3319144E-2,-2.614564E-3,5.408882E-2,-3.428675E-2,4.083313E-2,-1.1006668E-2,8.0097996E-4,5.3465515E-2,6.3948805E-4,-4.613325E-2,4.540966E-3,-1.0356E-2,-4.0824648E-2,-5.1766884E-2,1.0019953E-2,-4.594924E-2,2.8376406E-2,1.1955653E-2,-4.856156E-3,-2.7542506E-4,1.9919146E-2,2.443224E-3,2.9139016E-2,4.184386E-3,6.889888E-2,2.5526478E-4,2.8195893E-2,5.1721044E-2,1.1048308E-2,1.4346035E-2,-5.5719454E-2,5.2975662E-2,-8.377841E-5],"split_indices":[2,2,2,11,11,5,1,7,5,7,0,5,6,8,0,1,6,10,1,10,2,10,10,0,0,1,2,8,0,2,1,8,0,0,1,0,1,0,6,1,0,6,1,7,2,0,0,0,0,5,0,1,0,0,0,0,0,0,0,0,0,0,0,0,0,0,0,0,0,0,0,0,0,0,0,0,0,0,0,0,0,0,0,0,0,0,0,0,0],"split_type":[0,0,0,0,0,0,0,0,0,0,0,0,0,0,0,0,0,0,0,0,0,0,0,0,0,0,0,0,0,0,0,0,0,0,0,0,0,0,0,0,0,0,0,0,0,0,0,0,0,0,0,0,0,0,0,0,0,0,0,0,0,0,0,0,0,0,0,0,0,0,0,0,0,0,0,0,0,0,0,0,0,0,0,0,0,0,0,0,0],"sum_hessian":[1.4763202E3,1.3716777E3,1.0464236E2,7.946948E2,5.76983E2,7.394082E1,3.070154E1,2.6829803E2,5.263968E2,1.4037785E2,4.366051E2,4.4906716E0,6.945015E1,2.91587E1,1.5428381E0,2.5710043E2,1.1197599E1,5.0020932E2,2.6187468E1,1.3084424E2,9.5336075E0,3.6757724E2,6.902785E1,1.1062949E0,3.3843765E0,6.0926212E1,8.523937E0,2.7620934E1,1.5377676E0,5.2607018E1,2.0449342E2,5.5914226E0,5.606177E0,4.8278543E2,1.7423891E1,2.004682E0,2.4182785E1,1.0145156E2,2.9392685E1,4.5047464E0,5.0288615E0,2.1381406E2,1.5376318E2,6.294262E1,6.085228E0,1.14341E0,2.2409666E0,3.8434032E1,2.249218E1,6.3484836E0,2.1754541E0,1.3120583E1,1.4500352E1,7.0543437E0,4.5552673E1,2.6533418E0,2.0184007E2,1.3955442E0,4.1958785E0,4.069157E0,1.5370195E0,1.8883757E2,2.9394788E2,7.5392714E0,9.88462E0,1.8665268E1,5.517518E0,9.474058E1,6.710981E0,1.9654833E0,2.7427202E1,3.3904812E0,1.1142652E0,4.5384228E1,1.6842984E2,7.99946E1,7.376858E1,4.2871975E1,2.0070644E1,1.1366024E0,4.9486256E0,9.585568E0,2.8848463E1,1.8651348E1,3.8408318E0,3.1779382E0,3.1705453E0,1.0866935E1,2.253648E0],"tree_param":{"num_deleted":"0","num_feature":"13","num_nodes":"89","size_leaf_vector":"1"}},{"base_weights":[1.5055593E-2,-6.280129E-2,9.1924804E-1,-9.028684E-2,1.1239231E0,6.803815E-1,1.399581E0,-1.3987201E-1,2.1519564E-1,1.2202307E0,4.6230778E-1,7.304894E-1,-6.6484153E-1,1.4179507E0,1.9959848E-2,-2.5147405E-1,3.164597E-3,7.641758E-1,1.321372E-1,7.663273E-1,7.119505E-2,-2.905772E-2,5.0406903E-2,7.6340365E-1,-3.686003E-2,-5.4514747E-2,4.7283E-3,7.187241E-2,2.0158242E-2,-3.5843688E-1,-1.1562382E-1,-2.982764E-1,7.142662E-2,1.221672E0,2.5229007E-1,-3.1982818E-1,2.2589955E-1,3.9323592E-1,5.5689912E-2,3.4223173E-2,-4.4645965E-2,6.2595904E-1,1.1664164E0,-3.4042638E-2,-1.3011198E-2,1.4897784E-3,-1.0513189E-2,-2.0229807E-2,4.8647486E-3,-3.6805011E-3,1.3287315E-2,1.6344128E-3,7.283774E-2,2.4337992E-2,-4.575519E-2,-2.2623146E-2,4.7811713E-2,1.6336903E-2,-6.295091E-3,-7.4358615E-3,3.8550835E-2,3.3414394E-2,-3.801817E-2,6.700299E-2,2.3559099E-2],"categories":[],"categories_nodes":[],"categories_segments":[],"categories_sizes":[],"default_left":[0,0,0,0,0,0,0,0,0,0,0,0,0,0,0,0,0,0,0,0,0,0,0,0,0,0,0,0,0,0,0,0,0,0,0,0,0,0,0,0,0,0,0,0,0,0,0,0,0,0,0,0,0,0,0,0,0,0,0,0,0,0,0,0,0],"id":10,"left_children":[1,3,5,7,9,11,13,15,17,19,21,23,25,27,-1,29,31,33,35,37,-1,39,-1,41,-1,-1,-1,-1,-1,43,45,47,49,51,53,55,57,59,-1,-1,-1,61,63,-1,-1,-1,-1,-1,-1,-1,-1,-1,-1,-1,-1,-1,-1,-1,-1,-1,-1,-1,-1,-1,-1],"loss_changes":[1.0320569E2,4.4135258E1,1.2383064E1,2.0030119E1,1.3878098E0,5.8492126E0,1.2596893E-1,1.8144184E1,8.324611E0,1.3245544E0,1.505079E0,4.291649E0,1.1954771E0,1.4434052E-1,0E0,9.235897E0,1.0291732E1,5.329528E0,6.9250145E0,8.919711E-1,0E0,2.9951644E0,0E0,3.4789772E0,0E0,0E0,0E0,0E0,0E0,1.1118824E1,3.8972695E0,3.9233847E0,1.1511967E1,3.4328346E0,3.9002578E0,5.205059E0,4.8129306E0,1.4440025E0,0E0,0E0,0E0,3.9598541E0,1.5616779E0,0E0,0E0,0E0,0E0,0E0,0E0,0E0,0E0,0E0,0E0,0E0,0E0,0E0,0E0,0E0,0E0,0E0,0E0,0E0,0E0,0E0,0E0],"parents":[2147483647,0,0,1,1,2,2,3,3,4,4,5,5,6,6,7,7,8,8,9,9,10,10,11,11,12,12,13,13,15,15,16,16,17,17,18,18,19,19,21,21,23,23,29,29,30,30,31,31,32,32,33,33,34,34,35,35,36,36,37,37,41,41,42,42],"right_children":[2,4,6,8,10,12,14,16,18,20,22,24,26,28,-1,30,32,34,36,38,-1,40,-1,42,-1,-1,-1,-1,-1,44,46,48,50,52,54,56,58,60,-1,-1,-1,62,64,-1,-1,-1,-1,-1,-1,-1,-1,-1,-1,-1,-1,-1,-1,-1,-1,-1,-1,-1,-1,-1,-1],"split_conditions":[1.0549217E0,2.3994265E0,2.4085417E0,2.8400028E-1,1.1159877E0,2.4999046E0,1.547843E0,4.1407248E-1,-1.144234E0,2.919205E0,-7.227717E-2,3.2745752E0,-5.972736E-1,2.6964905E0,1.9959848E-2,-2.447831E-1,-8.1557006E-1,-3.2438672E-1,-4.620138E-1,1.2705721E-1,7.119505E-2,-5.999527E-1,5.0406903E-2,6.986751E-1,-3.686003E-2,-5.4514747E-2,4.7283E-3,7.187241E-2,2.0158242E-2,-5.8986175E-1,-4.3706143E-1,-7.9670385E-2,-2.3049168E-1,3.869467E-1,1.6841261E0,1.292402E0,7.929013E-1,-5.018849E-1,5.5689912E-2,3.4223173E-2,-4.4645965E-2,6.64792E-1,1.3389E0,-3.4042638E-2,-1.3011198E-2,1.4897784E-3,-1.0513189E-2,-2.0229807E-2,4.8647486E-3,-3.6805011E-3,1.3287315E-2,1.6344128E-3,7.283774E-2,2.4337992E-2,-4.575519E-2,-2.2623146E-2,4.7811713E-2,1.6336903E-2,-6.295091E-3,-7.4358615E-3,3.8550835E-2,3.3414394E-2,-3.801817E-2,6.700299E-2,2.3559099E-2],"split_indices":[3,2,3,3,10,7,1,10,5,2,3,9,5,7,0,2,1,2,2,8,0,3,0,1,0,0,0,0,0,3,5,3,2,3,9,6,3,3,0,0,0,1,1,0,0,0,0,0,0,0,0,0,0,0,0,0,0,0,0,0,0,0,0,0,0],"split_type":[0,0,0,0,0,0,0,0,0,0,0,0,0,0,0,0,0,0,0,0,0,0,0,0,0,0,0,0,0,0,0,0,0,0,0,0,0,0,0,0,0,0,0,0,0,0,0,0,0,0,0,0,0,0,0,0,0,0,0,0,0,0,0,0,0],"sum_hessian":[1.4642197E3,1.3489932E3,1.15226585E2,1.3193596E3,2.9633585E1,7.857046E1,3.6656124E1,1.1355775E3,1.8378207E2,2.5131077E1,4.5025086E0,7.618947E1,2.3809893E0,3.5585274E1,1.0708518E0,6.374552E2,4.981223E2,2.3073805E1,1.6070827E2,9.258966E0,1.587211E1,2.8677115E0,1.6347973E0,7.498766E1,1.2018058E0,1.246774E0,1.1342154E0,3.45058E1,1.0794754E0,3.5572983E2,2.817254E2,9.135123E1,4.067711E2,1.1452002E1,1.1621802E1,2.7197296E1,1.3351097E2,5.4928327E0,3.766134E0,1.6842481E0,1.1834633E0,5.7821312E1,1.7166348E1,8.167445E1,2.7405536E2,1.1133633E2,1.7038907E2,7.198156E1,1.936967E1,2.3327792E2,1.7349318E2,2.0785117E0,9.37349E0,1.016351E1,1.4582927E0,2.5221209E1,1.976086E0,1.03822945E2,2.9688025E1,2.5052354E0,2.9875972E0,5.6610752E1,1.2105631E0,1.2993555E1,4.172794E0],"tree_param":{"num_deleted":"0","num_feature":"13","num_nodes":"65","size_leaf_vector":"1"}},{"base_weights":[-1.3886855E-2,-9.150426E-2,8.680668E-1,-1.4408576E-1,5.384883E-1,6.356608E-1,1.3592173E0,-1.966217E-1,1.7740178E-1,4.0645584E-1,1.2396512E0,6.97299E-1,-1.14410505E-1,4.9286827E-1,7.101153E-2,-2.9311258E-1,-6.188689E-2,4.3156573E-1,3.3943467E-3,4.7870514E-1,-4.12629E-1,6.410616E-2,1.5975082E-2,5.4669935E-1,9.697548E-1,-6.010947E-1,3.962738E-2,-2.3044758E-2,5.213929E-2,-1.0900891E-1,-3.6292323E-1,-4.7154197E-1,-1.9986922E-2,6.253346E-1,-9.705051E-2,-1.0175418E-1,6.458268E-1,1.0934515E0,4.0754136E-1,-8.5861045E-1,2.9254047E-2,9.023689E-1,1.954431E-1,-2.711383E-2,1.110162E0,-1.2290041E-1,-5.894906E-2,-1.0955691E-2,1.3826839E-2,-1.9121597E-2,1.014478E-2,1.8413445E-2,-3.3771943E-2,5.652081E-4,-3.189932E-2,5.0207465E-3,4.031816E-2,-3.1749573E-2,2.7870571E-2,-3.020125E-2,3.158475E-4,4.0563848E-2,-2.7086554E-2,6.340655E-2,1.03609E-3,-1.4801465E-2,2.2649815E-2,2.9922714E-3,-5.4912593E-2,-1.1211908E-2,4.99984E-2,-6.05834E-2,1.6216597E-2,2.0573687E-2,6.281265E-2,-3.8524512E-2,4.3197766E-2],"categories":[],"categories_nodes":[],"categories_segments":[],"categories_sizes":[],"default_left":[0,0,0,0,0,0,0,0,0,0,0,0,0,0,0,0,0,0,0,0,0,0,0,0,0,0,0,0,0,0,0,0,0,0,0,0,0,0,0,0,0,0,0,0,0,0,0,0,0,0,0,0,0,0,0,0,0,0,0,0,0,0,0,0,0,0,0,0,0,0,0,0,0,0,0,0,0],"id":11,"left_children":[1,3,5,7,9,11,13,15,17,19,21,23,25,27,-1,29,31,33,35,37,39,-1,-1,41,43,45,-1,-1,-1,47,49,51,53,55,57,59,61,63,65,67,-1,69,71,-1,73,75,-1,-1,-1,-1,-1,-1,-1,-1,-1,-1,-1,-1,-1,-1,-1,-1,-1,-1,-1,-1,-1,-1,-1,-1,-1,-1,-1,-1,-1,-1,-1],"loss_changes":[1.005282E2,4.4783813E1,1.2695145E1,2.1086271E1,9.140274E0,3.894535E0,1.2703781E0,1.3916111E1,7.76461E0,5.473551E0,2.164383E-1,2.6041183E0,3.6212387E0,2.5701559E0,0E0,7.983856E0,7.6894817E0,7.3694935E0,7.175004E0,3.1587887E0,3.956904E0,0E0,0E0,6.255948E0,6.100586E0,1.2935444E0,0E0,0E0,0E0,7.407321E0,5.0692406E0,7.367919E0,7.8962927E0,4.89353E0,7.397103E0,4.959927E0,3.374693E0,1.4641695E0,2.5466328E0,1.3358436E0,0E0,3.0067978E0,5.3224797E0,0E0,1.9356117E0,3.1994255E0,0E0,0E0,0E0,0E0,0E0,0E0,0E0,0E0,0E0,0E0,0E0,0E0,0E0,0E0,0E0,0E0,0E0,0E0,0E0,0E0,0E0,0E0,0E0,0E0,0E0,0E0,0E0,0E0,0E0,0E0,0E0],"parents":[2147483647,0,0,1,1,2,2,3,3,4,4,5,5,6,6,7,7,8,8,9,9,10,10,11,11,12,12,13,13,15,15,16,16,17,17,18,18,19,19,20,20,23,23,24,24,25,25,29,29,30,30,31,31,32,32,33,33,34,34,35,35,36,36,37,37,38,38,39,39,41,41,42,42,44,44,45,45],"right_children":[2,4,6,8,10,12,14,16,18,20,22,24,26,28,-1,30,32,34,36,38,40,-1,-1,42,44,46,-1,-1,-1,48,50,52,54,56,58,60,62,64,66,68,-1,70,72,-1,74,76,-1,-1,-1,-1,-1,-1,-1,-1,-1,-1,-1,-1,-1,-1,-1,-1,-1,-1,-1,-1,-1,-1,-1,-1,-1,-1,-1,-1,-1,-1,-1],"split_conditions":[1.0549217E0,9.0315247E-1,2.4085417E0,2.8400028E-1,3.396294E0,1.4034652E0,-5.099536E-1,5.6268436E-1,-4.0873206E-1,1.2811186E0,1.4265711E0,4.7044775E-1,4.5501575E-1,4.5501575E-1,7.101153E-2,-6.090926E-1,-1.4296203E0,6.433441E-1,1.5682983E-1,-1.047899E0,1.2225147E-1,6.410616E-2,1.5975082E-2,-4.7070217E-1,-1.7912358E0,2.6455662E-1,3.962738E-2,-2.3044758E-2,5.213929E-2,-1.3765596E-1,6.611004E-1,8.9669156E-1,2.0151672E0,-6.090926E-1,9.367743E-2,-1.0433365E0,1.3482121E0,1.6841261E0,-1.7995354E0,-1.047899E0,2.9254047E-2,-1.3192357E0,-5.1490664E-1,-2.711383E-2,1.1975355E0,1.4782473E0,-5.894906E-2,-1.0955691E-2,1.3826839E-2,-1.9121597E-2,1.014478E-2,1.8413445E-2,-3.3771943E-2,5.652081E-4,-3.189932E-2,5.0207465E-3,4.031816E-2,-3.1749573E-2,2.7870571E-2,-3.020125E-2,3.158475E-4,4.0563848E-2,-2.7086554E-2,6.340655E-2,1.03609E-3,-1.4801465E-2,2.2649815E-2,2.9922714E-3,-5.4912593E-2,-1.1211908E-2,4.99984E-2,-6.05834E-2,1.6216597E-2,2.0573687E-2,6.281265E-2,-3.8524512E-2,4.3197766E-2],"split_indices":[3,2,3,3,2,10,2,10,5,1,10,1,11,11,0,6,1,1,2,6,6,0,0,1,11,5,0,0,0,3,2,10,5,6,9,1,10,9,1,6,0,5,2,0,3,10,0,0,0,0,0,0,0,0,0,0,0,0,0,0,0,0,0,0,0,0,0,0,0,0,0,0,0,0,0,0,0],"split_type":[0,0,0,0,0,0,0,0,0,0,0,0,0,0,0,0,0,0,0,0,0,0,0,0,0,0,0,0,0,0,0,0,0,0,0,0,0,0,0,0,0,0,0,0,0,0,0,0,0,0,0,0,0,0,0,0,0,0,0,0,0,0,0,0,0,0,0,0,0,0,0,0,0,0,0,0,0],"sum_hessian":[1.4663702E3,1.3485828E3,1.1778742E2,1.2454077E3,1.0317502E2,8.151148E1,3.627594E1,1.0708096E3,1.7459811E2,8.8154724E1,1.502029E1,7.538682E1,6.1246653E0,2.9839394E0,3.3292E1,6.23274E2,4.4753564E2,7.035457E1,1.0424355E2,8.139101E1,6.7637224E0,1.398155E1,1.0387406E0,5.0486835E1,2.4899984E1,4.205296E0,1.9193693E0,1.150472E0,1.8334675E0,1.7206584E2,4.5120813E2,4.0575535E1,4.069601E2,5.134913E1,1.9005438E1,9.0304756E1,1.3938795E1,6.9539757E0,7.443703E1,4.7706404E0,1.9930819E0,2.4306234E1,2.61806E1,1.8725463E0,2.3027437E1,2.9647074E0,1.2405885E0,1.3417854E2,3.7887302E1,4.3648288E2,1.4725252E1,7.7692738E0,3.2806263E1,3.8828198E2,1.867812E1,1.3566298E1,3.778283E1,1.0447649E1,8.55779E0,1.5177366E1,7.5127396E1,1.2512422E1,1.4263732E0,5.823538E0,1.130438E0,4.1827087E0,7.025432E1,1.1424248E0,3.6282158E0,1.8343529E0,2.2471882E1,1.4919317E0,2.4688667E1,4.6422334E0,1.8385204E1,1.922428E0,1.0422794E0],"tree_param":{"num_deleted":"0","num_feature":"13","num_nodes":"77","size_leaf_vector":"1"}},{"base_weights":[1.6070661E-3,-3.242349E-2,6.8154746E-1,-1.2466591E-1,8.874496E-2,4.7517538E-1,1.1313965E0,-2.0426233E-1,8.8382654E-2,-1.8704166E-1,1.4147621E-1,2.4093734E-1,6.766826E-1,9.949869E-3,1.191579E0,-2.1722306E-1,3.213777E-1,-2.9902142E-1,1.7796037E-1,-2.4536851E-1,5.4605937E-1,4.5998324E-2,2.3113602E-1,4.5614907E-1,-3.996525E-1,8.486762E-1,-1.21844076E-1,1.2228886E0,1.582264E-2,-1.6172779E-1,-3.5440704E-1,8.840814E-1,-1.8854788E-1,-8.4088993E-1,-1.4639081E-1,1.708128E-2,4.1516262E-1,-2.0353188E-1,-5.6687992E-2,-1.0249793E-1,6.0062926E-2,-6.000807E-2,2.1940479E-1,6.4154595E-1,1.7503907E-1,5.822682E-1,-3.8084973E-2,1.1136303E-1,-8.263343E-1,2.9101157E-1,1.1654788E0,2.0988718E-2,-4.8146832E-1,1.8510008E-2,1.252921E0,-4.385381E-3,-1.922558E-2,-2.6462331E-2,-8.357525E-3,-1.8065078E-2,7.062957E-2,-4.308195E-2,2.4516594E-2,1.146478E-2,-5.131345E-2,3.327739E-2,-2.244993E-2,3.267891E-3,-5.027951E-2,6.762182E-2,1.6445022E-2,-1.4509856E-2,3.0447913E-2,-4.3163586E-2,3.0789385E-2,2.2746082E-2,-5.5351993E-3,3.0053705E-2,4.87626E-3,1.722063E-2,5.92965E-2,1.707641E-2,4.2199567E-3,1.8894939E-2,6.288367E-2,3.0242046E-2,-1.8211288E-2,-6.784608E-2,4.9443985E-3,-1.4306684E-2,4.627207E-2,6.470775E-2,2.2893189E-2,-4.6317503E-2,9.575728E-3,6.6312276E-2,3.0456135E-2],"categories":[],"categories_nodes":[],"categories_segments":[],"categories_sizes":[],"default_left":[0,0,0,0,0,0,0,0,0,0,0,0,0,0,0,0,0,0,0,0,0,0,0,0,0,0,0,0,0,0,0,0,0,0,0,0,0,0,0,0,0,0,0,0,0,0,0,0,0,0,0,0,0,0,0,0,0,0,0,0,0,0,0,0,0,0,0,0,0,0,0,0,0,0,0,0,0,0,0,0,0,0,0,0,0,0,0,0,0,0,0,0,0,0,0,0,0],"id":12,"left_children":[1,3,5,7,9,11,13,15,17,19,21,23,25,-1,27,29,31,33,35,37,39,41,43,45,47,49,51,53,-1,55,57,59,61,63,65,67,69,71,-1,73,-1,75,77,79,81,83,-1,85,87,89,91,-1,93,-1,95,-1,-1,-1,-1,-1,-1,-1,-1,-1,-1,-1,-1,-1,-1,-1,-1,-1,-1,-1,-1,-1,-1,-1,-1,-1,-1,-1,-1,-1,-1,-1,-1,-1,-1,-1,-1,-1,-1,-1,-1,-1,-1],"loss_changes":[3.4182533E1,1.5735997E1,5.999256E0,1.3571185E1,8.878454E0,2.1966724E0,9.648285E-1,4.035776E0,7.621133E0,4.330137E0,4.3686028E0,3.58363E0,3.7184076E0,0E0,1.5883255E-1,4.272478E0,4.3019905E0,3.2949996E0,6.7759967E0,3.1734548E0,3.3281188E0,4.5901656E0,5.9558153E0,3.3517475E0,1.5610411E0,3.5090847E0,1.2810004E0,1.9737244E-2,0E0,6.6740494E0,5.2470303E0,5.1356225E0,4.253868E0,1.9954338E0,8.51904E0,5.3463297E0,5.3596773E0,6.4218655E0,0E0,3.1063452E0,0E0,4.1047435E0,4.345648E0,4.6575174E0,3.4910703E0,1.9712749E0,0E0,1.1466166E0,1.9949358E0,3.6422644E0,6.4196587E-1,0E0,1.3134954E0,0E0,3.3439636E-2,0E0,0E0,0E0,0E0,0E0,0E0,0E0,0E0,0E0,0E0,0E0,0E0,0E0,0E0,0E0,0E0,0E0,0E0,0E0,0E0,0E0,0E0,0E0,0E0,0E0,0E0,0E0,0E0,0E0,0E0,0E0,0E0,0E0,0E0,0E0,0E0,0E0,0E0,0E0,0E0,0E0,0E0],"parents":[2147483647,0,0,1,1,2,2,3,3,4,4,5,5,6,6,7,7,8,8,9,9,10,10,11,11,12,12,14,14,15,15,16,16,17,17,18,18,19,19,20,20,21,21,22,22,23,23,24,24,25,25,26,26,27,27,29,29,30,30,31,31,32,32,33,33,34,34,35,35,36,36,37,37,39,39,41,41,42,42,43,43,44,44,45,45,47,47,48,48,49,49,50,50,52,52,54,54],"right_children":[2,4,6,8,10,12,14,16,18,20,22,24,26,-1,28,30,32,34,36,38,40,42,44,46,48,50,52,54,-1,56,58,60,62,64,66,68,70,72,-1,74,-1,76,78,80,82,84,-1,86,88,90,92,-1,94,-1,96,-1,-1,-1,-1,-1,-1,-1,-1,-1,-1,-1,-1,-1,-1,-1,-1,-1,-1,-1,-1,-1,-1,-1,-1,-1,-1,-1,-1,-1,-1,-1,-1,-1,-1,-1,-1,-1,-1,-1,-1,-1,-1],"split_conditions":[1.317279E0,-2.4784902E-1,2.919205E0,5.6225365E-1,-7.929017E-1,6.499802E-2,-1.7912358E0,1.4996601E0,-7.929017E-1,1.7135608E0,-1.21375546E-1,-3.1771845E-1,1.1947391E0,9.949869E-3,2.281565E0,5.187859E-1,-7.296482E-2,-8.525154E-1,6.520431E-1,1.4811927E0,1.3896567E-1,7.585314E-1,4.5965433E-2,2.4793506E0,1.9813312E0,-4.4151355E-2,-4.4151355E-2,-1.1941679E0,1.582264E-2,-8.824546E-3,-4.2690712E-1,-2.5229838E-1,-6.880715E-2,-1.0481288E0,-1.6704893E-1,2.7550902E0,7.659376E-1,1.3209283E0,-5.6687992E-2,-8.553376E-2,6.0062926E-2,-1.0481288E0,-1.4577697E-1,-8.824546E-3,-7.0904076E-2,-5.549924E-1,-3.8084973E-2,-3.16555E-1,8.543493E-1,9.367743E-2,1.2037661E0,2.0988718E-2,1.48954E0,1.8510008E-2,1.2037661E0,-4.385381E-3,-1.922558E-2,-2.6462331E-2,-8.357525E-3,-1.8065078E-2,7.062957E-2,-4.308195E-2,2.4516594E-2,1.146478E-2,-5.131345E-2,3.327739E-2,-2.244993E-2,3.267891E-3,-5.027951E-2,6.762182E-2,1.6445022E-2,-1.4509856E-2,3.0447913E-2,-4.3163586E-2,3.0789385E-2,2.2746082E-2,-5.5351993E-3,3.0053705E-2,4.87626E-3,1.722063E-2,5.92965E-2,1.707641E-2,4.2199567E-3,1.8894939E-2,6.288367E-2,3.0242046E-2,-1.8211288E-2,-6.784608E-2,4.9443985E-3,-1.4306684E-2,4.627207E-2,6.470775E-2,2.2893189E-2,-4.6317503E-2,9.575728E-3,6.6312276E-2,3.0456135E-2],"split_indices":[2,2,2,4,11,1,11,10,11,7,4,1,1,0,8,8,1,1,10,10,4,10,4,9,2,11,11,6,0,4,4,7,8,8,1,6,10,10,0,2,0,8,2,4,2,1,0,6,11,9,11,0,1,0,11,0,0,0,0,0,0,0,0,0,0,0,0,0,0,0,0,0,0,0,0,0,0,0,0,0,0,0,0,0,0,0,0,0,0,0,0,0,0,0,0,0,0],"split_type":[0,0,0,0,0,0,0,0,0,0,0,0,0,0,0,0,0,0,0,0,0,0,0,0,0,0,0,0,0,0,0,0,0,0,0,0,0,0,0,0,0,0,0,0,0,0,0,0,0,0,0,0,0,0,0,0,0,0,0,0,0,0,0,0,0,0,0,0,0,0,0,0,0,0,0,0,0,0,0,0,0,0,0,0,0,0,0,0,0,0,0,0,0,0,0,0,0],"sum_hessian":[1.4753302E3,1.4059174E3,6.9412895E1,7.9822235E2,6.0769495E2,4.8993164E1,2.0419733E1,5.8114417E2,2.1707822E2,9.713385E1,5.1056113E2,2.3671906E1,2.5321259E1,1.4992127E0,1.892052E1,5.677323E2,1.3411869E1,4.032843E1,1.7674979E2,9.059153E1,6.5423255E0,2.4799094E2,2.625702E2,1.7934557E1,5.737347E0,2.0782204E1,4.539056E0,1.788332E1,1.0372006E0,4.0576596E2,1.6196631E2,6.027151E0,7.3847175E0,7.871996E0,3.2456432E1,1.0595757E2,7.079222E1,8.769103E1,2.900494E0,3.7117572E0,2.830568E0,1.5431154E2,9.36794E1,3.0318829E1,2.3225136E2,1.6724476E1,1.2100816E0,2.9469428E0,2.7904046E0,8.224059E0,1.2558145E1,1.7444851E0,2.7945707E0,1.0618442E0,1.6821476E1,3.056178E2,1.0014816E2,8.2815735E1,7.915057E1,1.8899772E0,4.137174E0,3.5729883E0,3.8117292E0,1.1272911E0,6.7447047E0,8.486528E0,2.3969906E1,1.0207508E2,3.8824959E0,4.7292128E0,6.6063E1,7.9819786E1,7.871244E0,1.70454E0,2.0072172E0,1.3115987E1,1.4119556E2,2.172264E1,7.195676E1,2.0669664E1,9.649163E0,8.0894615E1,1.5135674E2,1.4036666E1,2.68781E0,1.3128929E0,1.6340499E0,1.4768722E0,1.3135324E0,4.5939245E0,3.6301346E0,9.924525E0,2.6336188E0,1.4557498E0,1.3388209E0,1.4149864E1,2.6716106E0],"tree_param":{"num_deleted":"0","num_feature":"13","num_nodes":"97","size_leaf_vector":"1"}},{"base_weights":[1.2004647E-2,-2.9405903E-2,6.0034084E-1,-1.8826865E-1,2.1965344E-2,3.8557708E-1,1.042695E0,-2.540136E-1,-1.5126127E-2,-1.0789048E-1,9.8049976E-2,-7.0376754E-1,4.6729928E-1,7.6470333E-1,6.436357E-2,-3.2701987E-1,2.0989724E-3,6.5628365E-2,-7.3480684E-1,7.442587E-2,-1.9490555E-1,-1.9377369E-1,1.4147161E-1,1.0339529E-2,-6.405892E-2,6.550763E-1,1.215509E-1,6.198277E-2,5.4372305E-1,-5.682922E-1,-2.4543528E-1,1.4129013E-1,-4.2884794E-1,-4.9926254E-1,1.7606932E-1,1.9256685E-2,-1.0030916E0,1.5298572E-1,-3.721995E-1,-2.7340284E-1,1.157599E-1,4.963406E-2,-3.6288074E-1,8.963814E-2,4.0591484E-1,9.307695E-1,-9.7780205E-2,-5.6589868E-2,2.4382403E-1,-1.1845113E-1,8.790232E-1,-3.6829714E-2,-2.2451694E-3,-1.5184405E-2,2.6247764E-2,1.8215233E-2,-9.955406E-3,-3.4331556E-2,1.3406942E-2,1.2091741E-2,-4.4952985E-2,1.3726674E-2,-2.030356E-2,6.778126E-3,-6.0739424E-2,2.8395476E-3,2.831237E-2,-7.015287E-2,3.1664558E-3,-1.810047E-2,-2.8505858E-3,-1.7396875E-2,1.4714405E-2,-2.1756303E-2,1.7791612E-2,-2.2913108E-2,2.3090417E-2,9.687926E-3,4.404672E-4,1.2546933E-2,3.6602724E-2,5.0111335E-2,2.190795E-3,-3.8223572E-2,3.2870185E-2,2.4980132E-3,4.3551944E-2,-2.4945572E-2,2.7242899E-2,5.963059E-2,4.1727303E-4],"categories":[],"categories_nodes":[],"categories_segments":[],"categories_sizes":[],"default_left":[0,0,0,0,0,0,0,0,0,0,0,0,0,0,0,0,0,0,0,0,0,0,0,0,0,0,0,0,0,0,0,0,0,0,0,0,0,0,0,0,0,0,0,0,0,0,0,0,0,0,0,0,0,0,0,0,0,0,0,0,0,0,0,0,0,0,0,0,0,0,0,0,0,0,0,0,0,0,0,0,0,0,0,0,0,0,0,0,0,0,0],"id":13,"left_children":[1,3,5,7,9,11,13,15,17,19,21,23,25,27,-1,29,31,33,35,37,39,41,43,-1,-1,45,47,-1,49,51,53,55,57,59,61,-1,63,65,67,69,71,73,75,77,79,81,83,-1,85,87,89,-1,-1,-1,-1,-1,-1,-1,-1,-1,-1,-1,-1,-1,-1,-1,-1,-1,-1,-1,-1,-1,-1,-1,-1,-1,-1,-1,-1,-1,-1,-1,-1,-1,-1,-1,-1,-1,-1,-1,-1],"loss_changes":[3.5860027E1,1.1228535E1,8.792843E0,3.8229885E0,1.0287724E1,6.270385E0,1.1264191E0,4.5554066E0,5.487129E0,6.1186852E0,8.345193E0,2.923476E0,3.9900684E0,1.1095333E0,0E0,3.591982E0,3.3614504E0,5.394621E0,3.24781E0,4.4440613E0,6.390135E0,3.534996E0,7.803692E0,0E0,0E0,8.475178E0,3.8451571E0,0E0,3.0745957E0,4.1196003E0,6.595951E0,3.2872272E0,2.6424427E0,4.4162054E0,4.232206E0,0E0,2.0835562E0,4.2231197E0,8.616927E0,3.9759884E0,4.5143776E0,5.484481E0,4.186826E0,4.033897E0,4.5399084E0,1.8360481E0,6.4094753E0,0E0,2.636726E0,1.6291813E0,2.4474502E0,0E0,0E0,0E0,0E0,0E0,0E0,0E0,0E0,0E0,0E0,0E0,0E0,0E0,0E0,0E0,0E0,0E0,0E0,0E0,0E0,0E0,0E0,0E0,0E0,0E0,0E0,0E0,0E0,0E0,0E0,0E0,0E0,0E0,0E0,0E0,0E0,0E0,0E0,0E0,0E0],"parents":[2147483647,0,0,1,1,2,2,3,3,4,4,5,5,6,6,7,7,8,8,9,9,10,10,11,11,12,12,13,13,15,15,16,16,17,17,18,18,19,19,20,20,21,21,22,22,25,25,26,26,28,28,29,29,30,30,31,31,32,32,33,33,34,34,36,36,37,37,38,38,39,39,40,40,41,41,42,42,43,43,44,44,45,45,46,46,48,48,49,49,50,50],"right_children":[2,4,6,8,10,12,14,16,18,20,22,24,26,28,-1,30,32,34,36,38,40,42,44,-1,-1,46,48,-1,50,52,54,56,58,60,62,-1,64,66,68,70,72,74,76,78,80,82,84,-1,86,88,90,-1,-1,-1,-1,-1,-1,-1,-1,-1,-1,-1,-1,-1,-1,-1,-1,-1,-1,-1,-1,-1,-1,-1,-1,-1,-1,-1,-1,-1,-1,-1,-1,-1,-1,-1,-1,-1,-1,-1,-1],"split_conditions":[9.9683267E-1,-2.937349E-1,2.3994265E0,1.0619669E0,-3.8150814E-1,-1.7995354E0,3.396294E0,7.146503E-1,1.4953393E0,-4.81836E-1,-1.191854E0,-2.276594E0,2.685203E-1,-8.420561E-1,6.436357E-2,-6.634614E-1,1.5849397E0,-8.2199544E-1,-8.1226003E-1,1.0045645E0,9.272171E-1,-2.646715E-1,7.3042226E-1,1.0339529E-2,-6.405892E-2,1.7798164E0,-8.522645E-1,6.198277E-2,-4.4888428E-1,-8.553376E-2,1.292402E0,3.8236514E-1,-7.929017E-1,-9.758882E-1,1.0296886E0,1.9256685E-2,-4.9310765E-1,7.0732677E-1,-1.0630217E0,1.001459E0,-6.880715E-2,-3.9810705E-1,2.0857008E0,-2.5229838E-1,5.340453E-1,1.3389E0,2.0543219E-1,-5.6589868E-2,8.496862E-1,6.433441E-1,9.4647986E-1,-3.6829714E-2,-2.2451694E-3,-1.5184405E-2,2.6247764E-2,1.8215233E-2,-9.955406E-3,-3.4331556E-2,1.3406942E-2,1.2091741E-2,-4.4952985E-2,1.3726674E-2,-2.030356E-2,6.778126E-3,-6.0739424E-2,2.8395476E-3,2.831237E-2,-7.015287E-2,3.1664558E-3,-1.810047E-2,-2.8505858E-3,-1.7396875E-2,1.4714405E-2,-2.1756303E-2,1.7791612E-2,-2.2913108E-2,2.3090417E-2,9.687926E-3,4.404672E-4,1.2546933E-2,3.6602724E-2,5.0111335E-2,2.190795E-3,-3.8223572E-2,3.2870185E-2,2.4980132E-3,4.3551944E-2,-2.4945572E-2,2.7242899E-2,5.963059E-2,4.1727303E-4],"split_indices":[2,11,2,10,2,1,2,8,10,2,1,1,6,7,0,0,6,0,0,0,7,8,0,0,0,2,8,0,7,2,6,1,11,0,0,0,2,6,1,10,8,0,8,7,7,1,11,0,1,1,1,0,0,0,0,0,0,0,0,0,0,0,0,0,0,0,0,0,0,0,0,0,0,0,0,0,0,0,0,0,0,0,0,0,0,0,0,0,0,0,0],"split_type":[0,0,0,0,0,0,0,0,0,0,0,0,0,0,0,0,0,0,0,0,0,0,0,0,0,0,0,0,0,0,0,0,0,0,0,0,0,0,0,0,0,0,0,0,0,0,0,0,0,0,0,0,0,0,0,0,0,0,0,0,0,0,0,0,0,0,0,0,0,0,0,0,0,0,0,0,0,0,0,0,0,0,0,0,0,0,0,0,0,0,0],"sum_hessian":[1.470161E3,1.3743745E3,9.578652E1,3.35181E2,1.0391935E3,6.574086E1,3.0045658E1,2.4259627E2,9.258471E1,3.8377524E2,6.554183E2,4.056508E0,6.1684353E1,1.59935875E1,1.4052071E1,1.8856729E2,5.4028988E1,8.406113E1,8.523587E0,1.2403611E2,2.5973914E2,8.4442604E1,5.7097565E2,1.8232182E0,2.2332902E0,3.9394444E1,2.228991E1,3.6147087E0,1.237888E1,4.6142654E1,1.4242464E2,4.1346622E1,1.2682367E1,1.3171258E1,7.088987E1,1.563075E0,6.9605126E0,1.0604128E2,1.7994827E1,2.074434E2,5.229574E1,3.490617E1,4.953643E1,4.7852E2,9.2455666E1,2.8662155E1,1.073229E1,1.2473874E0,2.104252E1,4.378548E0,8.000331E0,3.4607E1,1.1535655E1,1.3297554E2,9.4491005E0,2.4938042E1,1.640858E1,9.269037E0,3.41333E0,4.7539835E0,8.417274E0,6.108608E1,9.803788E0,1.1475922E0,5.8129206E0,8.694138E1,1.9099894E1,4.6848044E0,1.3310024E1,1.4670042E2,6.074298E1,1.4273574E1,3.8022163E1,1.3349981E1,2.155619E1,4.479937E1,4.7370596E0,2.0851817E2,2.7000183E2,6.3873463E1,2.8582201E1,2.6404888E1,2.2572675E0,5.693584E0,5.038706E0,1.6898937E1,4.1435833E0,2.9400446E0,1.4385037E0,5.610035E0,2.3902957E0],"tree_param":{"num_deleted":"0","num_feature":"13","num_nodes":"91","size_leaf_vector":"1"}},{"base_weights":[3.6014237E-3,-6.8770505E-2,8.1178844E-1,-1.1126394E-1,5.339327E-1,6.044896E-1,1.2648048E0,-1.5756385E-1,1.7363869E-1,3.4087712E-1,1.0524782E0,4.5559758E-1,9.1871464E-1,4.3477103E-1,6.594214E-2,-3.1818342E-1,-7.3975906E-2,5.9367484E-1,8.5055545E-2,8.2333106E-1,2.3166187E-1,2.272344E-1,1.1300976E0,5.744735E-1,-1.5903479E-1,-1.9420972E-2,9.942695E-1,-2.0663098E-2,4.8623066E-2,-4.2303494E-1,-9.729208E-2,2.7925676E-1,-1.06528565E-1,8.558868E-1,-1.0390056E-1,-2.1321976E-1,2.3331927E-1,-1.8929634E-2,1.0486169E0,2.9635987E-1,-6.102209E-1,4.1964334E-2,-2.548759E-2,1.2164959E0,4.62567E-1,-4.036312E-2,6.246221E-1,-6.019963E-1,4.199373E-1,1.5647103E-1,1.0846668E0,-2.2242635E-2,2.4113284E-2,-7.620444E-3,4.275199E-2,7.2057634E-3,6.392603E-2,-1.420183E-2,-2.1297347E-3,5.105404E-2,-4.535365E-2,-3.5336476E-2,3.7797287E-2,-1.7409433E-2,2.3232335E-2,1.9765966E-2,-1.0090693E-3,7.403157E-2,1.9427173E-2,2.0297566E-2,-1.5593231E-2,3.054111E-3,-4.355421E-2,2.5466243E-2,6.455218E-2,4.9770456E-2,-1.8985663E-2,3.417951E-2,-1.3629521E-2,8.397068E-3,-6.9970995E-2,4.6445306E-2,-2.1488478E-2,3.237284E-2,-2.4383916E-2,6.1746676E-2,2.3022048E-2],"categories":[],"categories_nodes":[],"categories_segments":[],"categories_sizes":[],"default_left":[0,0,0,0,0,0,0,0,0,0,0,0,0,0,0,0,0,0,0,0,0,0,0,0,0,0,0,0,0,0,0,0,0,0,0,0,0,0,0,0,0,0,0,0,0,0,0,0,0,0,0,0,0,0,0,0,0,0,0,0,0,0,0,0,0,0,0,0,0,0,0,0,0,0,0,0,0,0,0,0,0,0,0,0,0,0,0],"id":14,"left_children":[1,3,5,7,9,11,13,15,17,19,21,23,25,27,-1,29,31,33,35,37,39,41,43,45,47,-1,49,-1,-1,51,53,55,57,59,61,63,65,-1,67,69,71,-1,-1,73,75,-1,77,79,81,83,85,-1,-1,-1,-1,-1,-1,-1,-1,-1,-1,-1,-1,-1,-1,-1,-1,-1,-1,-1,-1,-1,-1,-1,-1,-1,-1,-1,-1,-1,-1,-1,-1,-1,-1,-1,-1],"loss_changes":[8.6627945E1,3.487464E1,1.0666779E1,1.6788944E1,8.621281E0,3.5782127E0,1.0996017E0,1.4658676E1,6.576617E0,3.3314815E0,1.2713814E0,4.47134E0,3.001484E0,2.1216807E0,0E0,8.621193E0,8.315315E0,5.7323275E0,6.6061473E0,3.6320963E0,3.225543E0,1.9175913E0,6.80418E-1,3.9998798E0,2.9452407E0,0E0,1.747509E0,0E0,0E0,5.2180862E0,6.517573E0,8.063816E0,7.483654E0,7.4882755E0,5.365552E0,4.713258E0,4.094504E0,0E0,2.369526E0,3.6315594E0,8.09036E-1,0E0,0E0,3.1619263E-1,2.2107174E0,0E0,2.7917366E0,4.139072E0,2.6219797E0,1.4650748E0,1.558876E0,0E0,0E0,0E0,0E0,0E0,0E0,0E0,0E0,0E0,0E0,0E0,0E0,0E0,0E0,0E0,0E0,0E0,0E0,0E0,0E0,0E0,0E0,0E0,0E0,0E0,0E0,0E0,0E0,0E0,0E0,0E0,0E0,0E0,0E0,0E0,0E0],"parents":[2147483647,0,0,1,1,2,2,3,3,4,4,5,5,6,6,7,7,8,8,9,9,10,10,11,11,12,12,13,13,15,15,16,16,17,17,18,18,19,19,20,20,21,21,22,22,23,23,24,24,26,26,29,29,30,30,31,31,32,32,33,33,34,34,35,35,36,36,38,38,39,39,40,40,43,43,44,44,46,46,47,47,48,48,49,49,50,50],"right_children":[2,4,6,8,10,12,14,16,18,20,22,24,26,28,-1,30,32,34,36,38,40,42,44,46,48,-1,50,-1,-1,52,54,56,58,60,62,64,66,-1,68,70,72,-1,-1,74,76,-1,78,80,82,84,86,-1,-1,-1,-1,-1,-1,-1,-1,-1,-1,-1,-1,-1,-1,-1,-1,-1,-1,-1,-1,-1,-1,-1,-1,-1,-1,-1,-1,-1,-1,-1,-1,-1,-1,-1,-1],"split_conditions":[1.0549217E0,9.9683267E-1,2.4085417E0,2.8400028E-1,2.6261158E0,4.7044775E-1,-5.099536E-1,-4.4151355E-2,-1.0186154E0,1.1031662E0,-1.2920688E0,1.1461332E0,-1.7912358E0,-4.4151355E-2,6.594214E-2,4.4217178E-1,-1.047899E0,6.64792E-1,-4.0695423E-1,-7.0763904E-1,1.24194E0,1.2225147E-1,1.2037661E0,-1.4392393E0,-1.9167966E-1,-1.9420972E-2,-1.047899E0,-2.0663098E-2,4.8623066E-2,2.6135159E0,1.3002374E0,3.3857733E-1,-5.6935066E-1,9.77857E-1,6.076168E-1,8.535956E-1,3.8236514E-1,-1.8929634E-2,-1.6291271E-1,1.1461332E0,-1.047899E0,4.1964334E-2,-2.548759E-2,-7.905628E-1,5.290498E-1,-4.036312E-2,3.3981732E-1,7.4930227E-1,2.0961781E-1,8.543493E-1,1.3389E0,-2.2242635E-2,2.4113284E-2,-7.620444E-3,4.275199E-2,7.2057634E-3,6.392603E-2,-1.420183E-2,-2.1297347E-3,5.105404E-2,-4.535365E-2,-3.5336476E-2,3.7797287E-2,-1.7409433E-2,2.3232335E-2,1.9765966E-2,-1.0090693E-3,7.403157E-2,1.9427173E-2,2.0297566E-2,-1.5593231E-2,3.054111E-3,-4.355421E-2,2.5466243E-2,6.455218E-2,4.9770456E-2,-1.8985663E-2,3.417951E-2,-1.3629521E-2,8.397068E-3,-6.9970995E-2,4.6445306E-2,-2.1488478E-2,3.237284E-2,-2.4383916E-2,6.1746676E-2,2.3022048E-2],"split_indices":[3,2,3,3,2,1,2,11,5,2,11,6,11,11,0,4,6,1,2,0,1,6,11,5,2,0,6,0,0,0,1,2,3,3,3,6,1,0,5,6,6,0,0,0,1,0,1,10,5,11,1,0,0,0,0,0,0,0,0,0,0,0,0,0,0,0,0,0,0,0,0,0,0,0,0,0,0,0,0,0,0,0,0,0,0,0,0],"split_type":[0,0,0,0,0,0,0,0,0,0,0,0,0,0,0,0,0,0,0,0,0,0,0,0,0,0,0,0,0,0,0,0,0,0,0,0,0,0,0,0,0,0,0,0,0,0,0,0,0,0,0,0,0,0,0,0,0,0,0,0,0,0,0,0,0,0,0,0,0,0,0,0,0,0,0,0,0,0,0,0,0,0,0,0,0,0,0],"sum_hessian":[1.4791168E3,1.3583899E3,1.20726875E2,1.2696864E3,8.8703514E1,8.4427505E1,3.629937E1,1.0925771E3,1.7710928E2,6.584621E1,2.2857307E1,5.894634E1,2.5481169E1,2.771663E0,3.3527706E1,3.7300937E2,7.195678E2,2.9852982E1,1.472563E2,1.0947493E1,5.4898712E1,2.3027022E0,2.0554605E1,4.9447956E1,9.498382E0,1.1661061E0,2.4315062E1,1.1652577E0,1.6064051E0,2.5232295E2,1.20686424E2,6.0077824E1,6.594899E2,2.1532263E1,8.320718E0,4.8747833E1,9.850846E1,1.6206505E0,9.326842E0,5.158261E1,3.3161013E0,1.1821452E0,1.120557E0,1.7470964E1,3.08364E0,1.2030514E0,4.8244904E1,5.3587375E0,4.1396446E0,2.6340182E0,2.1681044E1,2.468817E2,5.4412465E0,1.1487777E2,5.8086596E0,5.3928677E1,6.1491485E0,1.7372145E2,4.857685E2,2.0072254E1,1.4600092E0,4.996089E0,3.3246293E0,4.105899E1,7.688843E0,5.9759567E1,3.8748894E1,4.8859096E0,4.4409323E0,4.39891E1,7.5935073E0,1.1423174E0,2.173784E0,2.4130106E0,1.5057954E1,1.7774129E0,1.3062272E0,4.549303E1,2.751873E0,3.1279745E0,2.230763E0,2.530615E0,1.6090294E0,1.4917991E0,1.142219E0,1.668597E1,4.9950733E0],"tree_param":{"num_deleted":"0","num_feature":"13","num_nodes":"87","size_leaf_vector":"1"}},{"base_weights":[9.370938E-3,-6.173139E-2,8.2496476E-1,-1.0322661E-1,4.7105077E-1,4.5557997E-1,1.0466081E0,-1.9214936E-1,9.691317E-2,2.6816255E-1,9.3819016E-1,1.9662957E-1,8.823929E-1,4.0358314E-1,1.1102073E0,-2.4953151E-1,-4.702442E-2,-1.4420791E-1,2.0119947E-1,3.1347424E-1,-4.79331E-2,7.253046E-1,6.33442E-2,-1.4559864E-1,7.445248E-1,5.1532316E-1,6.438015E-2,-2.7643654E-1,7.152752E-1,5.6505864E-3,1.1310372E0,-3.215248E-1,-2.7770005E-2,-8.3764605E-2,4.952691E-1,-8.0047596E-1,-6.49918E-2,1.2141149E-1,6.0444313E-1,7.7199405E-1,1.3835357E-1,2.021655E-1,1.0627507E0,-8.3144635E-1,1.5800205E-1,1.2474108E0,3.4196444E-2,6.488813E-2,8.8946116E-1,-2.4172513E-2,2.9741246E-3,-6.9797534E-4,8.897118E-1,1.1585116E0,2.868543E-1,-4.535716E-3,-1.846093E-2,-3.035889E-2,2.2004957E-3,7.834638E-3,-9.483886E-3,5.128888E-2,-2.9954219E-3,-5.969703E-2,2.8226782E-2,2.0929265E-3,-3.378774E-2,-4.2042853E-3,1.5539429E-2,3.6213964E-2,-1.4832281E-2,5.9374984E-2,1.7718708E-2,3.3060674E-2,-8.7774463E-4,4.4144433E-2,-1.1868234E-2,5.8949508E-2,1.00497035E-2,-7.225269E-3,-5.5134635E-2,2.8626174E-2,-2.7907154E-2,6.805654E-2,1.5697306E-2,-2.5585204E-2,4.9756166E-2,-1.6851394E-2,2.608459E-2,5.3803243E-2,7.975276E-3,1.8831147E-2,5.293876E-2,3.575511E-2,6.065963E-2,4.241984E-2,-2.0877998E-2],"categories":[],"categories_nodes":[],"categories_segments":[],"categories_sizes":[],"default_left":[0,0,0,0,0,0,0,0,0,0,0,0,0,0,0,0,0,0,0,0,0,0,0,0,0,0,0,0,0,0,0,0,0,0,0,0,0,0,0,0,0,0,0,0,0,0,0,0,0,0,0,0,0,0,0,0,0,0,0,0,0,0,0,0,0,0,0,0,0,0,0,0,0,0,0,0,0,0,0,0,0,0,0,0,0,0,0,0,0,0,0,0,0,0,0,0,0],"id":15,"left_children":[1,3,5,7,9,11,13,15,17,19,21,23,25,27,29,31,33,35,37,39,-1,41,-1,43,45,47,-1,49,51,-1,53,55,57,59,61,63,65,67,69,71,73,75,77,79,81,83,85,87,89,-1,-1,-1,91,93,95,-1,-1,-1,-1,-1,-1,-1,-1,-1,-1,-1,-1,-1,-1,-1,-1,-1,-1,-1,-1,-1,-1,-1,-1,-1,-1,-1,-1,-1,-1,-1,-1,-1,-1,-1,-1,-1,-1,-1,-1,-1,-1],"loss_changes":[8.4615715E1,2.9722874E1,9.102463E0,2.2195087E1,8.957485E0,4.871747E0,2.5109558E0,7.17572E0,9.684675E0,4.1441693E0,1.1119194E0,5.6769485E0,1.8577127E0,1.9110577E0,1.2279816E0,9.862343E0,4.9387245E0,6.005381E0,8.564432E0,5.307918E0,0E0,3.307518E0,0E0,4.111863E0,4.094482E0,1.7221034E0,0E0,2.5558466E-1,7.529514E-1,0E0,1.147995E0,5.1037064E0,6.374402E0,5.914153E0,4.697491E0,7.3667784E0,6.8842883E0,8.796994E0,4.9764004E0,2.7752428E0,4.0888004E0,2.919953E0,9.544945E-1,9.6335745E-1,4.502592E0,2.8951168E-1,3.5668643E0,1.2536596E0,6.034775E-1,0E0,0E0,0E0,1.0090113E-2,6.231842E-1,1.6757526E0,0E0,0E0,0E0,0E0,0E0,0E0,0E0,0E0,0E0,0E0,0E0,0E0,0E0,0E0,0E0,0E0,0E0,0E0,0E0,0E0,0E0,0E0,0E0,0E0,0E0,0E0,0E0,0E0,0E0,0E0,0E0,0E0,0E0,0E0,0E0,0E0,0E0,0E0,0E0,0E0,0E0,0E0],"parents":[2147483647,0,0,1,1,2,2,3,3,4,4,5,5,6,6,7,7,8,8,9,9,10,10,11,11,12,12,13,13,14,14,15,15,16,16,17,17,18,18,19,19,21,21,23,23,24,24,25,25,27,27,28,28,30,30,31,31,32,32,33,33,34,34,35,35,36,36,37,37,38,38,39,39,40,40,41,41,42,42,43,43,44,44,45,45,46,46,47,47,48,48,52,52,53,53,54,54],"right_children":[2,4,6,8,10,12,14,16,18,20,22,24,26,28,30,32,34,36,38,40,-1,42,-1,44,46,48,-1,50,52,-1,54,56,58,60,62,64,66,68,70,72,74,76,78,80,82,84,86,88,90,-1,-1,-1,92,94,96,-1,-1,-1,-1,-1,-1,-1,-1,-1,-1,-1,-1,-1,-1,-1,-1,-1,-1,-1,-1,-1,-1,-1,-1,-1,-1,-1,-1,-1,-1,-1,-1,-1,-1,-1,-1,-1,-1,-1,-1,-1,-1],"split_conditions":[1.0549217E0,9.0315247E-1,1.5337536E0,-9.275079E-2,2.3994265E0,2.5535855E-1,-1.1932157E0,5.6225365E-1,-4.1267708E-1,1.5118545E0,-7.227717E-2,-2.5425822E-1,6.899202E-1,1.8755921E0,-1.1941679E0,-7.0904076E-2,1.8898363E0,-1.038642E0,1.2403234E0,1.1031662E0,-4.79331E-2,-4.4888428E-1,6.33442E-2,-5.883368E-1,5.610579E-1,-2.646715E-1,6.438015E-2,-2.646715E-1,-7.266011E-1,5.6505864E-3,2.3033185E0,-1.181932E0,-1.038642E0,-6.454702E-1,1.4386709E0,4.147891E-1,1.0296886E0,-1.4391367E-1,3.5330212E-1,-4.0162015E-1,-6.454702E-1,-5.8643585E-1,5.411098E-1,1.2513502E0,3.2292157E-1,-1.0046629E-1,1.1461332E0,-4.4888428E-1,7.146503E-1,-2.4172513E-2,2.9741246E-3,-6.9797534E-4,1.9491301E-1,-4.8324463E-1,-1.7585276E-1,-4.535716E-3,-1.846093E-2,-3.035889E-2,2.2004957E-3,7.834638E-3,-9.483886E-3,5.128888E-2,-2.9954219E-3,-5.969703E-2,2.8226782E-2,2.0929265E-3,-3.378774E-2,-4.2042853E-3,1.5539429E-2,3.6213964E-2,-1.4832281E-2,5.9374984E-2,1.7718708E-2,3.3060674E-2,-8.7774463E-4,4.4144433E-2,-1.1868234E-2,5.8949508E-2,1.00497035E-2,-7.225269E-3,-5.5134635E-2,2.8626174E-2,-2.7907154E-2,6.805654E-2,1.5697306E-2,-2.5585204E-2,4.9756166E-2,-1.6851394E-2,2.608459E-2,5.3803243E-2,7.975276E-3,1.8831147E-2,5.293876E-2,3.575511E-2,6.065963E-2,4.241984E-2,-2.0877998E-2],"split_indices":[3,2,3,3,2,4,4,4,2,1,3,2,10,3,6,2,8,7,10,2,0,7,0,0,6,8,0,8,1,0,7,4,7,7,6,6,0,4,2,3,7,3,0,3,8,4,6,7,8,0,0,0,10,2,4,0,0,0,0,0,0,0,0,0,0,0,0,0,0,0,0,0,0,0,0,0,0,0,0,0,0,0,0,0,0,0,0,0,0,0,0,0,0,0,0,0,0],"split_type":[0,0,0,0,0,0,0,0,0,0,0,0,0,0,0,0,0,0,0,0,0,0,0,0,0,0,0,0,0,0,0,0,0,0,0,0,0,0,0,0,0,0,0,0,0,0,0,0,0,0,0,0,0,0,0,0,0,0,0,0,0,0,0,0,0,0,0,0,0,0,0,0,0,0,0,0,0,0,0,0,0,0,0,0,0,0,0,0,0,0,0,0,0,0,0,0,0],"sum_hessian":[1.4572494E3,1.3412457E3,1.1600362E2,1.2450802E3,9.61656E1,4.464873E1,7.135489E1,8.6209045E2,3.829897E2,6.8143524E1,2.8022078E1,2.8698092E1,1.595064E1,7.08339E0,6.42715E1,6.1729407E2,2.447964E2,1.1551768E2,2.6747202E2,6.643431E1,1.7092098E0,1.895324E1,9.068837E0,1.8116413E1,1.0581678E1,9.561162E0,6.3894773E0,2.261839E0,4.821551E0,1.4465405E0,6.2824955E1,4.6566833E2,1.5162573E2,2.3005576E2,1.4740656E1,1.1461295E1,1.0405638E2,2.243767E2,4.3095314E1,1.7418629E1,4.9015686E1,8.058827E0,1.0894412E1,5.025335E0,1.3091078E1,5.752804E0,4.8288746E0,4.8706665E0,4.6904955E0,1.1276969E0,1.1341422E0,1.1082921E0,3.713259E0,6.048412E1,2.3408356E0,8.024256E1,3.8542575E2,1.58914E1,1.3573434E2,7.0199814E1,1.5985594E2,7.104338E0,7.6363173E0,8.994079E0,2.467217E0,8.935549E1,1.47008915E1,1.0787508E2,1.1650162E2,3.8209972E1,4.8853426E0,7.80733E0,9.611299E0,1.0514124E1,3.850156E1,2.766106E0,5.2927217E0,9.275188E0,1.6192238E0,1.8564801E0,3.1688547E0,8.418692E0,4.6723857E0,4.719677E0,1.0331268E0,3.377572E0,1.4513026E0,2.7304769E0,2.1401896E0,3.357933E0,1.3325626E0,1.7202353E0,1.9930235E0,8.185484E0,5.2298637E1,1.1887733E0,1.1520624E0],"tree_param":{"num_deleted":"0","num_feature":"13","num_nodes":"97","size_leaf_vector":"1"}},{"base_weights":[1.512923E-3,-4.828767E-2,9.6155494E-1,-1.1687494E-1,2.2227222E-1,6.5665436E-1,1.2363863E0,-1.5819225E-1,3.3506703E-1,-1.904507E-2,3.5719305E-1,7.214636E-1,-2.3608143E-2,4.613748E-1,6.449346E-2,-3.0594105E-1,-9.321615E-2,-3.1373337E-1,4.8154494E-1,4.4243154E-1,-1.0584172E-1,7.6645124E-1,2.817728E-1,4.5660034E-1,1.0635328E0,-2.0750891E-2,4.901124E-2,-6.853786E-2,-2.928876E-1,-2.2891493E-1,-2.2812651E-2,-7.4608505E-1,6.117255E-2,3.7496075E-1,1.1123596E0,7.77909E-1,-7.4832386E-1,-2.8623167E-1,1.4160311E-1,-6.787351E-1,9.465335E-1,2.4369891E-1,1.1222339E0,5.792951E-1,-4.4565927E-2,2.851614E-1,1.1924119E0,-1.7736403E-2,-4.995774E-3,1.1586542E-3,-1.5841307E-2,5.0841644E-3,-5.656358E-3,-6.556987E-2,-7.0185424E-3,-1.1439544E-2,3.452342E-2,2.288713E-2,-2.2425987E-2,5.9161525E-2,1.3196692E-2,1.7575644E-2,6.5529704E-2,1.2321397E-2,-6.653729E-2,-7.688684E-3,-5.1173385E-2,1.8171396E-2,-3.794064E-2,8.211742E-3,-5.655694E-2,7.6157735E-3,5.4326367E-2,5.9187353E-2,1.0290817E-2,6.1311185E-2,1.4242539E-2,4.227822E-2,1.0981981E-2,2.5503382E-2,-4.845882E-3,1.2053751E-2,6.982195E-2],"categories":[],"categories_nodes":[],"categories_segments":[],"categories_sizes":[],"default_left":[0,0,0,0,0,0,0,0,0,0,0,0,0,0,0,0,0,0,0,0,0,0,0,0,0,0,0,0,0,0,0,0,0,0,0,0,0,0,0,0,0,0,0,0,0,0,0,0,0,0,0,0,0,0,0,0,0,0,0,0,0,0,0,0,0,0,0,0,0,0,0,0,0,0,0,0,0,0,0,0,0,0,0],"id":16,"left_children":[1,3,5,7,9,11,13,15,17,19,21,23,-1,25,-1,27,29,31,33,35,37,39,41,43,45,-1,-1,-1,47,49,51,53,55,57,59,61,63,65,67,69,71,73,75,77,-1,79,81,-1,-1,-1,-1,-1,-1,-1,-1,-1,-1,-1,-1,-1,-1,-1,-1,-1,-1,-1,-1,-1,-1,-1,-1,-1,-1,-1,-1,-1,-1,-1,-1,-1,-1,-1,-1],"loss_changes":[6.9903984E1,2.582063E1,5.2301407E0,2.077203E1,9.170642E0,2.997343E0,9.2978287E-1,9.737774E0,9.0142765E0,4.1276245E0,5.357731E0,2.661749E0,0E0,2.1946516E0,0E0,3.9114723E0,6.758891E0,2.928111E0,4.7250023E0,7.1021843E0,3.904231E0,7.803995E0,4.6562853E0,4.0441146E0,1.1052628E0,0E0,0E0,0E0,3.6377907E0,5.364691E0,5.2653832E0,2.669816E0,2.0645332E0,4.768118E0,3.218174E-1,2.543026E0,2.701781E0,4.7637086E0,7.6989756E0,1.5706494E0,2.601509E0,5.050296E0,2.0794201E-1,1.7446609E0,0E0,3.3824807E-1,2.0015526E0,0E0,0E0,0E0,0E0,0E0,0E0,0E0,0E0,0E0,0E0,0E0,0E0,0E0,0E0,0E0,0E0,0E0,0E0,0E0,0E0,0E0,0E0,0E0,0E0,0E0,0E0,0E0,0E0,0E0,0E0,0E0,0E0,0E0,0E0,0E0,0E0],"parents":[2147483647,0,0,1,1,2,2,3,3,4,4,5,5,6,6,7,7,8,8,9,9,10,10,11,11,13,13,15,15,16,16,17,17,18,18,19,19,20,20,21,21,22,22,23,23,24,24,28,28,29,29,30,30,31,31,32,32,33,33,34,34,35,35,36,36,37,37,38,38,39,39,40,40,41,41,42,42,43,43,45,45,46,46],"right_children":[2,4,6,8,10,12,14,16,18,20,22,24,-1,26,-1,28,30,32,34,36,38,40,42,44,46,-1,-1,-1,48,50,52,54,56,58,60,62,64,66,68,70,72,74,76,78,-1,80,82,-1,-1,-1,-1,-1,-1,-1,-1,-1,-1,-1,-1,-1,-1,-1,-1,-1,-1,-1,-1,-1,-1,-1,-1,-1,-1,-1,-1,-1,-1,-1,-1,-1,-1,-1,-1],"split_conditions":[1.5337536E0,1.6811872E-1,2.4085417E0,7.9526323E-1,-3.8150814E-1,2.6732938E0,-5.099536E-1,-5.582292E-1,-7.929017E-1,-9.6870875E-1,-3.259321E-1,-1.16926044E-1,-2.3608143E-2,-4.4151355E-2,6.449346E-2,-1.095274E0,-4.4151355E-2,1.2410685E0,3.396294E0,9.77857E-1,-8.594502E-2,-8.504036E-1,2.2038798E0,-1.6127974E-1,1.6301578E0,-2.0750891E-2,4.901124E-2,-6.853786E-2,5.610579E-1,-6.090926E-1,-3.4837815E-1,3.923925E-1,2.7827477E-1,1.24194E0,6.528427E-1,4.9735388E-1,-7.44728E-1,-2.1843597E-1,1.1745754E0,-3.6529934E-1,-1.0840862E0,-9.955092E-1,1.3022434E0,-8.322598E-2,-4.4565927E-2,3.2292157E-1,-8.522645E-1,-1.7736403E-2,-4.995774E-3,1.1586542E-3,-1.5841307E-2,5.0841644E-3,-5.656358E-3,-6.556987E-2,-7.0185424E-3,-1.1439544E-2,3.452342E-2,2.288713E-2,-2.2425987E-2,5.9161525E-2,1.3196692E-2,1.7575644E-2,6.5529704E-2,1.2321397E-2,-6.653729E-2,-7.688684E-3,-5.1173385E-2,1.8171396E-2,-3.794064E-2,8.211742E-3,-5.655694E-2,7.6157735E-3,5.4326367E-2,5.9187353E-2,1.0290817E-2,6.1311185E-2,1.4242539E-2,4.227822E-2,1.0981981E-2,2.5503382E-2,-4.845882E-3,1.2053751E-2,6.982195E-2],"split_indices":[3,3,3,2,2,8,2,3,11,5,2,2,0,11,0,0,11,2,2,3,0,0,2,2,3,0,0,0,6,6,5,1,0,1,0,3,0,0,10,1,1,0,8,1,0,8,8,0,0,0,0,0,0,0,0,0,0,0,0,0,0,0,0,0,0,0,0,0,0,0,0,0,0,0,0,0,0,0,0,0,0,0,0],"split_type":[0,0,0,0,0,0,0,0,0,0,0,0,0,0,0,0,0,0,0,0,0,0,0,0,0,0,0,0,0,0,0,0,0,0,0,0,0,0,0,0,0,0,0,0,0,0,0,0,0,0,0,0,0,0,0,0,0,0,0,0,0,0,0,0,0,0,0,0,0,0,0,0,0,0,0,0,0,0,0,0,0,0,0],"sum_hessian":[1.460129E3,1.3890254E3,7.110369E1,1.1085696E3,2.8045575E2,3.5314617E1,3.5789074E1,1.01630707E3,9.226256E1,1.0088079E2,1.7957497E2,3.373845E1,1.5761712E0,2.931772E0,3.2857304E1,3.092948E2,7.070122E2,1.6783018E1,7.547954E1,1.5321702E1,8.555909E1,2.6517706E1,1.5305725E2,2.0331015E1,1.3407433E1,1.1646593E0,1.7671127E0,2.4860718E0,3.0680875E2,2.407427E2,4.6626953E2,7.3345532E0,9.448465E0,6.5933624E1,9.545917E0,1.2224378E1,3.0973248E0,4.9393757E1,3.616533E1,2.63139E0,2.3886316E1,1.4765813E2,5.399129E0,1.9157433E1,1.1735815E0,2.3609564E0,1.1046476E1,2.3171451E2,7.509423E1,6.2437553E1,1.7830516E2,1.9598457E2,2.7028494E2,3.1911829E0,4.14337E0,6.903803E0,2.5446625E0,6.0314537E1,5.6190867E0,8.445802E0,1.1001154E0,7.711487E0,4.512891E0,1.3568219E0,1.740503E0,4.2895393E1,6.4983644E0,2.94953E1,6.67003E0,1.1414617E0,1.4899284E0,3.8923156E0,1.9994001E1,4.5481796E0,1.4310995E2,4.389651E0,1.0094779E0,1.0231528E1,8.925905E0,1.2752919E0,1.0856646E0,2.3359568E0,8.71052E0],"tree_param":{"num_deleted":"0","num_feature":"13","num_nodes":"83","size_leaf_vector":"1"}},{"base_weights":[1.6113898E-2,-5.0274793E-2,7.886329E-1,-6.750435E-2,7.888368E-1,4.6204704E-1,1.1352209E0,-1.1093217E-1,2.0258905E-1,4.3195087E-1,5.5119086E-2,1.9280064E-1,6.7855614E-1,-6.8026053E-4,1.1618369E0,-1.9347592E-1,1.3291965E-3,5.729008E-1,9.501546E-2,8.8062286E-1,1.5641108E-1,3.640088E-1,-6.847775E-1,8.441111E-1,8.6559065E-2,8.980592E-3,1.1886873E0,-2.5324398E-1,-2.7149165E-2,-1.8247771E-1,9.888074E-2,7.538232E-1,-1.19249694E-1,-4.8236203E-1,1.8863124E-1,7.899263E-3,5.613166E-2,-7.368339E-1,5.044338E-1,5.3163546E-1,-4.180786E-1,-4.939228E-2,-1.255234E-3,4.9357364E-1,1.2661073E0,-7.00785E-1,5.4241353E-1,8.125762E-3,1.2177278E0,-1.9691674E-2,-7.636404E-3,1.7551538E-2,-5.395971E-3,-1.20998025E-2,1.5470649E-2,-1.3656623E-2,9.750552E-3,4.254226E-2,3.0867697E-3,-3.583595E-2,3.0040015E-2,-7.887423E-3,-5.2951436E-2,5.101259E-3,2.29642E-2,-4.829251E-2,-6.9620186E-3,6.327979E-3,4.3727566E-2,1.00935465E-2,5.1050223E-2,-6.142622E-2,3.4550678E-2,-1.5548569E-3,3.7838835E-2,1.5689623E-2,6.664274E-2,-6.3824706E-2,1.7103506E-2,-2.3535123E-2,4.432992E-2,1.30034955E-2,6.211217E-2],"categories":[],"categories_nodes":[],"categories_segments":[],"categories_sizes":[],"default_left":[0,0,0,0,0,0,0,0,0,0,0,0,0,0,0,0,0,0,0,0,0,0,0,0,0,0,0,0,0,0,0,0,0,0,0,0,0,0,0,0,0,0,0,0,0,0,0,0,0,0,0,0,0,0,0,0,0,0,0,0,0,0,0,0,0,0,0,0,0,0,0,0,0,0,0,0,0,0,0,0,0,0,0],"id":17,"left_children":[1,3,5,7,9,11,13,15,17,19,-1,21,23,-1,25,27,29,31,33,35,37,39,41,43,45,-1,47,49,51,53,55,57,59,61,63,-1,-1,65,67,69,71,-1,-1,73,75,77,79,-1,81,-1,-1,-1,-1,-1,-1,-1,-1,-1,-1,-1,-1,-1,-1,-1,-1,-1,-1,-1,-1,-1,-1,-1,-1,-1,-1,-1,-1,-1,-1,-1,-1,-1,-1],"loss_changes":[7.4262695E1,1.9334284E1,1.2445885E1,1.53615E1,2.5352135E0,3.4066591E0,1.6946564E0,1.04456835E1,7.175552E0,1.6214943E0,0E0,4.522995E0,3.1846066E0,0E0,1.2020569E0,6.450821E0,8.600144E0,5.181099E0,7.757597E0,